digraph Tree {
node [shape=box, style="filled, rounded", color="black", fontname="helvetica"] ;
edge [fontname="helvetica"] ;
0 [label="gender <= 74.5\ngini = 0.623\nsamples = 800\nvalue = [327, 342, 131]\nclass = Shirt", fillcolor="#f9fefb"] ;
1 [label="gender <= 52.5\ngini = 0.629\nsamples = 723\nvalue = [296, 300, 127]\nclass = Shirt", fillcolor="#fdfffe"] ;
0 -> 1 [labeldistance=2.5, labelangle=45, headlabel="True"] ;
2 [label="state <= 1.5\ngini = 0.612\nsamples = 427\nvalue = [172, 193, 62]\nclass = Shirt", fillcolor="#effdf5"] ;
1 -> 2 ;
3 [label="gender <= 32.5\ngini = 0.626\nsamples = 111\nvalue = [49, 43, 19]\nclass = Jacket", fillcolor="#fdf4ee"] ;
2 -> 3 ;
4 [label="gender <= 30.5\ngini = 0.584\nsamples = 43\nvalue = [24, 12, 7]\nclass = Jacket", fillcolor="#f5ceb2"] ;
3 -> 4 ;
5 [label="gender <= 26.5\ngini = 0.633\nsamples = 35\nvalue = [16, 12, 7]\nclass = Jacket", fillcolor="#fae9dd"] ;
4 -> 5 ;
6 [label="gender <= 20.5\ngini = 0.612\nsamples = 23\nvalue = [12, 5, 6]\nclass = Jacket", fillcolor="#f6d3b9"] ;
5 -> 6 ;
7 [label="age <= 1.5\ngini = 0.375\nsamples = 4\nvalue = [3, 0, 1]\nclass = Jacket", fillcolor="#eeab7b"] ;
6 -> 7 ;
8 [label="gini = 0.0\nsamples = 3\nvalue = [3, 0, 0]\nclass = Jacket", fillcolor="#e58139"] ;
7 -> 8 ;
9 [label="gini = 0.0\nsamples = 1\nvalue = [0, 0, 1]\nclass = Trousers", fillcolor="#8139e5"] ;
7 -> 9 ;
10 [label="age <= 1.5\ngini = 0.637\nsamples = 19\nvalue = [9, 5, 5]\nclass = Jacket", fillcolor="#f8dbc6"] ;
6 -> 10 ;
11 [label="gender <= 23.5\ngini = 0.657\nsamples = 17\nvalue = [7, 5, 5]\nclass = Jacket", fillcolor="#fbeade"] ;
10 -> 11 ;
12 [label="state <= 0.5\ngini = 0.62\nsamples = 10\nvalue = [5, 2, 3]\nclass = Jacket", fillcolor="#f8dbc6"] ;
11 -> 12 ;
13 [label="gender <= 21.5\ngini = 0.5\nsamples = 4\nvalue = [2, 0, 2]\nclass = Jacket", fillcolor="#ffffff"] ;
12 -> 13 ;
14 [label="gini = 0.0\nsamples = 1\nvalue = [0, 0, 1]\nclass = Trousers", fillcolor="#8139e5"] ;
13 -> 14 ;
15 [label="gender <= 22.5\ngini = 0.444\nsamples = 3\nvalue = [2, 0, 1]\nclass = Jacket", fillcolor="#f2c09c"] ;
13 -> 15 ;
16 [label="gini = 0.5\nsamples = 2\nvalue = [1, 0, 1]\nclass = Jacket", fillcolor="#ffffff"] ;
15 -> 16 ;
17 [label="gini = 0.0\nsamples = 1\nvalue = [1, 0, 0]\nclass = Jacket", fillcolor="#e58139"] ;
15 -> 17 ;
18 [label="gender <= 22.0\ngini = 0.611\nsamples = 6\nvalue = [3, 2, 1]\nclass = Jacket", fillcolor="#f8e0ce"] ;
12 -> 18 ;
19 [label="gini = 0.444\nsamples = 3\nvalue = [2, 1, 0]\nclass = Jacket", fillcolor="#f2c09c"] ;
18 -> 19 ;
20 [label="gini = 0.667\nsamples = 3\nvalue = [1, 1, 1]\nclass = Jacket", fillcolor="#ffffff"] ;
18 -> 20 ;
21 [label="gender <= 25.5\ngini = 0.653\nsamples = 7\nvalue = [2, 3, 2]\nclass = Shirt", fillcolor="#d7fae6"] ;
11 -> 21 ;
22 [label="gender <= 24.5\ngini = 0.56\nsamples = 5\nvalue = [1, 3, 1]\nclass = Shirt", fillcolor="#9cf2c0"] ;
21 -> 22 ;
23 [label="gini = 0.5\nsamples = 2\nvalue = [0, 1, 1]\nclass = Shirt", fillcolor="#ffffff"] ;
22 -> 23 ;
24 [label="state <= 0.5\ngini = 0.444\nsamples = 3\nvalue = [1, 2, 0]\nclass = Shirt", fillcolor="#9cf2c0"] ;
22 -> 24 ;
25 [label="gini = 0.0\nsamples = 1\nvalue = [0, 1, 0]\nclass = Shirt", fillcolor="#39e581"] ;
24 -> 25 ;
26 [label="gini = 0.5\nsamples = 2\nvalue = [1, 1, 0]\nclass = Jacket", fillcolor="#ffffff"] ;
24 -> 26 ;
27 [label="gini = 0.5\nsamples = 2\nvalue = [1, 0, 1]\nclass = Jacket", fillcolor="#ffffff"] ;
21 -> 27 ;
28 [label="gini = 0.0\nsamples = 2\nvalue = [2, 0, 0]\nclass = Jacket", fillcolor="#e58139"] ;
10 -> 28 ;
29 [label="age <= 1.5\ngini = 0.542\nsamples = 12\nvalue = [4, 7, 1]\nclass = Shirt", fillcolor="#b5f5d0"] ;
5 -> 29 ;
30 [label="state <= 0.5\ngini = 0.46\nsamples = 10\nvalue = [2, 7, 1]\nclass = Shirt", fillcolor="#83efb0"] ;
29 -> 30 ;
31 [label="gender <= 27.5\ngini = 0.444\nsamples = 6\nvalue = [2, 4, 0]\nclass = Shirt", fillcolor="#9cf2c0"] ;
30 -> 31 ;
32 [label="gini = 0.0\nsamples = 2\nvalue = [0, 2, 0]\nclass = Shirt", fillcolor="#39e581"] ;
31 -> 32 ;
33 [label="age <= 0.5\ngini = 0.5\nsamples = 4\nvalue = [2, 2, 0]\nclass = Jacket", fillcolor="#ffffff"] ;
31 -> 33 ;
34 [label="gini = 0.5\nsamples = 2\nvalue = [1, 1, 0]\nclass = Jacket", fillcolor="#ffffff"] ;
33 -> 34 ;
35 [label="gini = 0.5\nsamples = 2\nvalue = [1, 1, 0]\nclass = Jacket", fillcolor="#ffffff"] ;
33 -> 35 ;
36 [label="gender <= 29.5\ngini = 0.375\nsamples = 4\nvalue = [0, 3, 1]\nclass = Shirt", fillcolor="#7beeab"] ;
30 -> 36 ;
37 [label="age <= 0.5\ngini = 0.5\nsamples = 2\nvalue = [0, 1, 1]\nclass = Shirt", fillcolor="#ffffff"] ;
36 -> 37 ;
38 [label="gini = 0.0\nsamples = 1\nvalue = [0, 1, 0]\nclass = Shirt", fillcolor="#39e581"] ;
37 -> 38 ;
39 [label="gini = 0.0\nsamples = 1\nvalue = [0, 0, 1]\nclass = Trousers", fillcolor="#8139e5"] ;
37 -> 39 ;
40 [label="gini = 0.0\nsamples = 2\nvalue = [0, 2, 0]\nclass = Shirt", fillcolor="#39e581"] ;
36 -> 40 ;
41 [label="gini = 0.0\nsamples = 2\nvalue = [2, 0, 0]\nclass = Jacket", fillcolor="#e58139"] ;
29 -> 41 ;
42 [label="gini = 0.0\nsamples = 8\nvalue = [8, 0, 0]\nclass = Jacket", fillcolor="#e58139"] ;
4 -> 42 ;
43 [label="gender <= 33.5\ngini = 0.626\nsamples = 68\nvalue = [25, 31, 12]\nclass = Shirt", fillcolor="#e3fbed"] ;
3 -> 43 ;
44 [label="gini = 0.0\nsamples = 3\nvalue = [0, 3, 0]\nclass = Shirt", fillcolor="#39e581"] ;
43 -> 44 ;
45 [label="state <= 0.5\ngini = 0.632\nsamples = 65\nvalue = [25, 28, 12]\nclass = Shirt", fillcolor="#f0fdf6"] ;
43 -> 45 ;
46 [label="gender <= 48.5\ngini = 0.614\nsamples = 35\nvalue = [10, 18, 7]\nclass = Shirt", fillcolor="#c0f7d7"] ;
45 -> 46 ;
47 [label="age <= 0.5\ngini = 0.601\nsamples = 26\nvalue = [5, 14, 7]\nclass = Shirt", fillcolor="#b6f5d1"] ;
46 -> 47 ;
48 [label="gender <= 41.5\ngini = 0.56\nsamples = 5\nvalue = [1, 1, 3]\nclass = Trousers", fillcolor="#c09cf2"] ;
47 -> 48 ;
49 [label="gender <= 37.0\ngini = 0.667\nsamples = 3\nvalue = [1, 1, 1]\nclass = Jacket", fillcolor="#ffffff"] ;
48 -> 49 ;
50 [label="gini = 0.0\nsamples = 1\nvalue = [0, 0, 1]\nclass = Trousers", fillcolor="#8139e5"] ;
49 -> 50 ;
51 [label="gini = 0.5\nsamples = 2\nvalue = [1, 1, 0]\nclass = Jacket", fillcolor="#ffffff"] ;
49 -> 51 ;
52 [label="gini = 0.0\nsamples = 2\nvalue = [0, 0, 2]\nclass = Trousers", fillcolor="#8139e5"] ;
48 -> 52 ;
53 [label="gender <= 34.5\ngini = 0.544\nsamples = 21\nvalue = [4, 13, 4]\nclass = Shirt", fillcolor="#96f1bc"] ;
47 -> 53 ;
54 [label="gini = 0.625\nsamples = 4\nvalue = [2, 1, 1]\nclass = Jacket", fillcolor="#f6d5bd"] ;
53 -> 54 ;
55 [label="gender <= 40.5\ngini = 0.457\nsamples = 17\nvalue = [2, 12, 3]\nclass = Shirt", fillcolor="#80eeae"] ;
53 -> 55 ;
56 [label="gini = 0.0\nsamples = 8\nvalue = [0, 8, 0]\nclass = Shirt", fillcolor="#39e581"] ;
55 -> 56 ;
57 [label="gender <= 44.5\ngini = 0.642\nsamples = 9\nvalue = [2, 4, 3]\nclass = Shirt", fillcolor="#defbea"] ;
55 -> 57 ;
58 [label="gini = 0.0\nsamples = 2\nvalue = [0, 0, 2]\nclass = Trousers", fillcolor="#8139e5"] ;
57 -> 58 ;
59 [label="gender <= 46.5\ngini = 0.571\nsamples = 7\nvalue = [2, 4, 1]\nclass = Shirt", fillcolor="#b0f5cd"] ;
57 -> 59 ;
60 [label="gini = 0.444\nsamples = 3\nvalue = [2, 1, 0]\nclass = Jacket", fillcolor="#f2c09c"] ;
59 -> 60 ;
61 [label="gender <= 47.5\ngini = 0.375\nsamples = 4\nvalue = [0, 3, 1]\nclass = Shirt", fillcolor="#7beeab"] ;
59 -> 61 ;
62 [label="gini = 0.5\nsamples = 2\nvalue = [0, 1, 1]\nclass = Shirt", fillcolor="#ffffff"] ;
61 -> 62 ;
63 [label="gini = 0.0\nsamples = 2\nvalue = [0, 2, 0]\nclass = Shirt", fillcolor="#39e581"] ;
61 -> 63 ;
64 [label="gender <= 50.5\ngini = 0.494\nsamples = 9\nvalue = [5, 4, 0]\nclass = Jacket", fillcolor="#fae6d7"] ;
46 -> 64 ;
65 [label="age <= 0.5\ngini = 0.444\nsamples = 6\nvalue = [4, 2, 0]\nclass = Jacket", fillcolor="#f2c09c"] ;
64 -> 65 ;
66 [label="gini = 0.0\nsamples = 2\nvalue = [2, 0, 0]\nclass = Jacket", fillcolor="#e58139"] ;
65 -> 66 ;
67 [label="age <= 1.5\ngini = 0.5\nsamples = 4\nvalue = [2, 2, 0]\nclass = Jacket", fillcolor="#ffffff"] ;
65 -> 67 ;
68 [label="gini = 0.0\nsamples = 2\nvalue = [0, 2, 0]\nclass = Shirt", fillcolor="#39e581"] ;
67 -> 68 ;
69 [label="gini = 0.0\nsamples = 2\nvalue = [2, 0, 0]\nclass = Jacket", fillcolor="#e58139"] ;
67 -> 69 ;
70 [label="age <= 0.5\ngini = 0.444\nsamples = 3\nvalue = [1, 2, 0]\nclass = Shirt", fillcolor="#9cf2c0"] ;
64 -> 70 ;
71 [label="gini = 0.0\nsamples = 1\nvalue = [0, 1, 0]\nclass = Shirt", fillcolor="#39e581"] ;
70 -> 71 ;
72 [label="gender <= 51.5\ngini = 0.5\nsamples = 2\nvalue = [1, 1, 0]\nclass = Jacket", fillcolor="#ffffff"] ;
70 -> 72 ;
73 [label="gini = 0.0\nsamples = 1\nvalue = [0, 1, 0]\nclass = Shirt", fillcolor="#39e581"] ;
72 -> 73 ;
74 [label="gini = 0.0\nsamples = 1\nvalue = [1, 0, 0]\nclass = Jacket", fillcolor="#e58139"] ;
72 -> 74 ;
75 [label="gender <= 39.5\ngini = 0.611\nsamples = 30\nvalue = [15, 10, 5]\nclass = Jacket", fillcolor="#f8e0ce"] ;
45 -> 75 ;
76 [label="gender <= 37.5\ngini = 0.593\nsamples = 9\nvalue = [4, 1, 4]\nclass = Jacket", fillcolor="#ffffff"] ;
75 -> 76 ;
77 [label="age <= 0.5\ngini = 0.571\nsamples = 7\nvalue = [4, 1, 2]\nclass = Jacket", fillcolor="#f5cdb0"] ;
76 -> 77 ;
78 [label="gini = 0.0\nsamples = 2\nvalue = [2, 0, 0]\nclass = Jacket", fillcolor="#e58139"] ;
77 -> 78 ;
79 [label="gender <= 34.5\ngini = 0.64\nsamples = 5\nvalue = [2, 1, 2]\nclass = Jacket", fillcolor="#ffffff"] ;
77 -> 79 ;
80 [label="gini = 0.0\nsamples = 1\nvalue = [0, 1, 0]\nclass = Shirt", fillcolor="#39e581"] ;
79 -> 80 ;
81 [label="gender <= 35.5\ngini = 0.5\nsamples = 4\nvalue = [2, 0, 2]\nclass = Jacket", fillcolor="#ffffff"] ;
79 -> 81 ;
82 [label="gini = 0.0\nsamples = 1\nvalue = [0, 0, 1]\nclass = Trousers", fillcolor="#8139e5"] ;
81 -> 82 ;
83 [label="gender <= 36.5\ngini = 0.444\nsamples = 3\nvalue = [2, 0, 1]\nclass = Jacket", fillcolor="#f2c09c"] ;
81 -> 83 ;
84 [label="gini = 0.5\nsamples = 2\nvalue = [1, 0, 1]\nclass = Jacket", fillcolor="#ffffff"] ;
83 -> 84 ;
85 [label="gini = 0.0\nsamples = 1\nvalue = [1, 0, 0]\nclass = Jacket", fillcolor="#e58139"] ;
83 -> 85 ;
86 [label="gini = 0.0\nsamples = 2\nvalue = [0, 0, 2]\nclass = Trousers", fillcolor="#8139e5"] ;
76 -> 86 ;
87 [label="gender <= 41.5\ngini = 0.54\nsamples = 21\nvalue = [11, 9, 1]\nclass = Jacket", fillcolor="#fbeade"] ;
75 -> 87 ;
88 [label="gender <= 40.5\ngini = 0.408\nsamples = 7\nvalue = [5, 2, 0]\nclass = Jacket", fillcolor="#efb388"] ;
87 -> 88 ;
89 [label="gini = 0.5\nsamples = 4\nvalue = [2, 2, 0]\nclass = Jacket", fillcolor="#ffffff"] ;
88 -> 89 ;
90 [label="gini = 0.0\nsamples = 3\nvalue = [3, 0, 0]\nclass = Jacket", fillcolor="#e58139"] ;
88 -> 90 ;
91 [label="gender <= 43.5\ngini = 0.561\nsamples = 14\nvalue = [6, 7, 1]\nclass = Shirt", fillcolor="#e6fcef"] ;
87 -> 91 ;
92 [label="gender <= 42.5\ngini = 0.5\nsamples = 2\nvalue = [0, 1, 1]\nclass = Shirt", fillcolor="#ffffff"] ;
91 -> 92 ;
93 [label="gini = 0.0\nsamples = 1\nvalue = [0, 1, 0]\nclass = Shirt", fillcolor="#39e581"] ;
92 -> 93 ;
94 [label="gini = 0.0\nsamples = 1\nvalue = [0, 0, 1]\nclass = Trousers", fillcolor="#8139e5"] ;
92 -> 94 ;
95 [label="age <= 0.5\ngini = 0.5\nsamples = 12\nvalue = [6, 6, 0]\nclass = Jacket", fillcolor="#ffffff"] ;
91 -> 95 ;
96 [label="gini = 0.0\nsamples = 1\nvalue = [1, 0, 0]\nclass = Jacket", fillcolor="#e58139"] ;
95 -> 96 ;
97 [label="gender <= 48.0\ngini = 0.496\nsamples = 11\nvalue = [5, 6, 0]\nclass = Shirt", fillcolor="#defbea"] ;
95 -> 97 ;
98 [label="age <= 1.5\ngini = 0.444\nsamples = 6\nvalue = [2, 4, 0]\nclass = Shirt", fillcolor="#9cf2c0"] ;
97 -> 98 ;
99 [label="gini = 0.0\nsamples = 2\nvalue = [0, 2, 0]\nclass = Shirt", fillcolor="#39e581"] ;
98 -> 99 ;
100 [label="gender <= 46.5\ngini = 0.5\nsamples = 4\nvalue = [2, 2, 0]\nclass = Jacket", fillcolor="#ffffff"] ;
98 -> 100 ;
101 [label="gender <= 45.0\ngini = 0.444\nsamples = 3\nvalue = [2, 1, 0]\nclass = Jacket", fillcolor="#f2c09c"] ;
100 -> 101 ;
102 [label="gini = 0.5\nsamples = 2\nvalue = [1, 1, 0]\nclass = Jacket", fillcolor="#ffffff"] ;
101 -> 102 ;
103 [label="gini = 0.0\nsamples = 1\nvalue = [1, 0, 0]\nclass = Jacket", fillcolor="#e58139"] ;
101 -> 103 ;
104 [label="gini = 0.0\nsamples = 1\nvalue = [0, 1, 0]\nclass = Shirt", fillcolor="#39e581"] ;
100 -> 104 ;
105 [label="gender <= 50.5\ngini = 0.48\nsamples = 5\nvalue = [3, 2, 0]\nclass = Jacket", fillcolor="#f6d5bd"] ;
97 -> 105 ;
106 [label="gini = 0.0\nsamples = 2\nvalue = [2, 0, 0]\nclass = Jacket", fillcolor="#e58139"] ;
105 -> 106 ;
107 [label="age <= 1.5\ngini = 0.444\nsamples = 3\nvalue = [1, 2, 0]\nclass = Shirt", fillcolor="#9cf2c0"] ;
105 -> 107 ;
108 [label="gini = 0.5\nsamples = 2\nvalue = [1, 1, 0]\nclass = Jacket", fillcolor="#ffffff"] ;
107 -> 108 ;
109 [label="gini = 0.0\nsamples = 1\nvalue = [0, 1, 0]\nclass = Shirt", fillcolor="#39e581"] ;
107 -> 109 ;
110 [label="gender <= 25.5\ngini = 0.605\nsamples = 316\nvalue = [123, 150, 43]\nclass = Shirt", fillcolor="#e3fbed"] ;
2 -> 110 ;
111 [label="state <= 2.5\ngini = 0.548\nsamples = 72\nvalue = [25, 41, 6]\nclass = Shirt", fillcolor="#bcf6d4"] ;
110 -> 111 ;
112 [label="gender <= 20.5\ngini = 0.562\nsamples = 11\nvalue = [6, 4, 1]\nclass = Jacket", fillcolor="#f8dbc6"] ;
111 -> 112 ;
113 [label="gini = 0.0\nsamples = 2\nvalue = [0, 2, 0]\nclass = Shirt", fillcolor="#39e581"] ;
112 -> 113 ;
114 [label="gender <= 24.5\ngini = 0.494\nsamples = 9\nvalue = [6, 2, 1]\nclass = Jacket", fillcolor="#f0b78e"] ;
112 -> 114 ;
115 [label="gender <= 21.5\ngini = 0.406\nsamples = 8\nvalue = [6, 1, 1]\nclass = Jacket", fillcolor="#eca572"] ;
114 -> 115 ;
116 [label="gini = 0.0\nsamples = 3\nvalue = [3, 0, 0]\nclass = Jacket", fillcolor="#e58139"] ;
115 -> 116 ;
117 [label="gender <= 23.0\ngini = 0.56\nsamples = 5\nvalue = [3, 1, 1]\nclass = Jacket", fillcolor="#f2c09c"] ;
115 -> 117 ;
118 [label="gini = 0.5\nsamples = 2\nvalue = [1, 1, 0]\nclass = Jacket", fillcolor="#ffffff"] ;
117 -> 118 ;
119 [label="gini = 0.444\nsamples = 3\nvalue = [2, 0, 1]\nclass = Jacket", fillcolor="#f2c09c"] ;
117 -> 119 ;
120 [label="gini = 0.0\nsamples = 1\nvalue = [0, 1, 0]\nclass = Shirt", fillcolor="#39e581"] ;
114 -> 120 ;
121 [label="state <= 6.5\ngini = 0.528\nsamples = 61\nvalue = [19, 37, 5]\nclass = Shirt", fillcolor="#aaf4c9"] ;
111 -> 121 ;
122 [label="age <= 1.5\ngini = 0.5\nsamples = 51\nvalue = [14, 33, 4]\nclass = Shirt", fillcolor="#99f2be"] ;
121 -> 122 ;
123 [label="state <= 3.5\ngini = 0.528\nsamples = 44\nvalue = [13, 27, 4]\nclass = Shirt", fillcolor="#a6f3c6"] ;
122 -> 123 ;
124 [label="gender <= 22.0\ngini = 0.612\nsamples = 7\nvalue = [3, 3, 1]\nclass = Jacket", fillcolor="#ffffff"] ;
123 -> 124 ;
125 [label="gini = 0.0\nsamples = 1\nvalue = [1, 0, 0]\nclass = Jacket", fillcolor="#e58139"] ;
124 -> 125 ;
126 [label="gender <= 24.5\ngini = 0.611\nsamples = 6\nvalue = [2, 3, 1]\nclass = Shirt", fillcolor="#cef8e0"] ;
124 -> 126 ;
127 [label="gender <= 23.5\ngini = 0.444\nsamples = 3\nvalue = [0, 2, 1]\nclass = Shirt", fillcolor="#9cf2c0"] ;
126 -> 127 ;
128 [label="gini = 0.0\nsamples = 1\nvalue = [0, 1, 0]\nclass = Shirt", fillcolor="#39e581"] ;
127 -> 128 ;
129 [label="gini = 0.5\nsamples = 2\nvalue = [0, 1, 1]\nclass = Shirt", fillcolor="#ffffff"] ;
127 -> 129 ;
130 [label="gini = 0.444\nsamples = 3\nvalue = [2, 1, 0]\nclass = Jacket", fillcolor="#f2c09c"] ;
126 -> 130 ;
131 [label="state <= 4.5\ngini = 0.5\nsamples = 37\nvalue = [10, 24, 3]\nclass = Shirt", fillcolor="#98f2be"] ;
123 -> 131 ;
132 [label="gender <= 20.5\ngini = 0.406\nsamples = 8\nvalue = [1, 6, 1]\nclass = Shirt", fillcolor="#72eca5"] ;
131 -> 132 ;
133 [label="age <= 0.5\ngini = 0.444\nsamples = 3\nvalue = [0, 2, 1]\nclass = Shirt", fillcolor="#9cf2c0"] ;
132 -> 133 ;
134 [label="gini = 0.0\nsamples = 1\nvalue = [0, 1, 0]\nclass = Shirt", fillcolor="#39e581"] ;
133 -> 134 ;
135 [label="gini = 0.5\nsamples = 2\nvalue = [0, 1, 1]\nclass = Shirt", fillcolor="#ffffff"] ;
133 -> 135 ;
136 [label="gender <= 23.5\ngini = 0.32\nsamples = 5\nvalue = [1, 4, 0]\nclass = Shirt", fillcolor="#6aeca0"] ;
132 -> 136 ;
137 [label="gender <= 22.0\ngini = 0.444\nsamples = 3\nvalue = [1, 2, 0]\nclass = Shirt", fillcolor="#9cf2c0"] ;
136 -> 137 ;
138 [label="gini = 0.0\nsamples = 1\nvalue = [0, 1, 0]\nclass = Shirt", fillcolor="#39e581"] ;
137 -> 138 ;
139 [label="age <= 0.5\ngini = 0.5\nsamples = 2\nvalue = [1, 1, 0]\nclass = Jacket", fillcolor="#ffffff"] ;
137 -> 139 ;
140 [label="gini = 0.0\nsamples = 1\nvalue = [0, 1, 0]\nclass = Shirt", fillcolor="#39e581"] ;
139 -> 140 ;
141 [label="gini = 0.0\nsamples = 1\nvalue = [1, 0, 0]\nclass = Jacket", fillcolor="#e58139"] ;
139 -> 141 ;
142 [label="gini = 0.0\nsamples = 2\nvalue = [0, 2, 0]\nclass = Shirt", fillcolor="#39e581"] ;
136 -> 142 ;
143 [label="gender <= 20.5\ngini = 0.514\nsamples = 29\nvalue = [9, 18, 2]\nclass = Shirt", fillcolor="#a6f3c6"] ;
131 -> 143 ;
144 [label="age <= 0.5\ngini = 0.5\nsamples = 6\nvalue = [3, 3, 0]\nclass = Jacket", fillcolor="#ffffff"] ;
143 -> 144 ;
145 [label="gini = 0.0\nsamples = 1\nvalue = [0, 1, 0]\nclass = Shirt", fillcolor="#39e581"] ;
144 -> 145 ;
146 [label="state <= 5.5\ngini = 0.48\nsamples = 5\nvalue = [3, 2, 0]\nclass = Jacket", fillcolor="#f6d5bd"] ;
144 -> 146 ;
147 [label="gini = 0.444\nsamples = 3\nvalue = [2, 1, 0]\nclass = Jacket", fillcolor="#f2c09c"] ;
146 -> 147 ;
148 [label="gini = 0.5\nsamples = 2\nvalue = [1, 1, 0]\nclass = Jacket", fillcolor="#ffffff"] ;
146 -> 148 ;
149 [label="age <= 0.5\ngini = 0.499\nsamples = 23\nvalue = [6, 15, 2]\nclass = Shirt", fillcolor="#96f1bc"] ;
143 -> 149 ;
150 [label="state <= 5.5\ngini = 0.5\nsamples = 6\nvalue = [3, 3, 0]\nclass = Jacket", fillcolor="#ffffff"] ;
149 -> 150 ;
151 [label="gender <= 24.5\ngini = 0.375\nsamples = 4\nvalue = [1, 3, 0]\nclass = Shirt", fillcolor="#7beeab"] ;
150 -> 151 ;
152 [label="gini = 0.0\nsamples = 3\nvalue = [0, 3, 0]\nclass = Shirt", fillcolor="#39e581"] ;
151 -> 152 ;
153 [label="gini = 0.0\nsamples = 1\nvalue = [1, 0, 0]\nclass = Jacket", fillcolor="#e58139"] ;
151 -> 153 ;
154 [label="gini = 0.0\nsamples = 2\nvalue = [2, 0, 0]\nclass = Jacket", fillcolor="#e58139"] ;
150 -> 154 ;
155 [label="gender <= 22.5\ngini = 0.457\nsamples = 17\nvalue = [3, 12, 2]\nclass = Shirt", fillcolor="#80eeae"] ;
149 -> 155 ;
156 [label="gini = 0.0\nsamples = 3\nvalue = [0, 3, 0]\nclass = Shirt", fillcolor="#39e581"] ;
155 -> 156 ;
157 [label="gender <= 24.5\ngini = 0.52\nsamples = 14\nvalue = [3, 9, 2]\nclass = Shirt", fillcolor="#93f1ba"] ;
155 -> 157 ;
158 [label="state <= 5.5\ngini = 0.571\nsamples = 7\nvalue = [1, 4, 2]\nclass = Shirt", fillcolor="#b0f5cd"] ;
157 -> 158 ;
159 [label="gini = 0.0\nsamples = 1\nvalue = [0, 0, 1]\nclass = Trousers", fillcolor="#8139e5"] ;
158 -> 159 ;
160 [label="gender <= 23.5\ngini = 0.5\nsamples = 6\nvalue = [1, 4, 1]\nclass = Shirt", fillcolor="#88efb3"] ;
158 -> 160 ;
161 [label="gini = 0.375\nsamples = 4\nvalue = [1, 3, 0]\nclass = Shirt", fillcolor="#7beeab"] ;
160 -> 161 ;
162 [label="gini = 0.5\nsamples = 2\nvalue = [0, 1, 1]\nclass = Shirt", fillcolor="#ffffff"] ;
160 -> 162 ;
163 [label="state <= 5.5\ngini = 0.408\nsamples = 7\nvalue = [2, 5, 0]\nclass = Shirt", fillcolor="#88efb3"] ;
157 -> 163 ;
164 [label="gini = 0.444\nsamples = 3\nvalue = [1, 2, 0]\nclass = Shirt", fillcolor="#9cf2c0"] ;
163 -> 164 ;
165 [label="gini = 0.375\nsamples = 4\nvalue = [1, 3, 0]\nclass = Shirt", fillcolor="#7beeab"] ;
163 -> 165 ;
166 [label="gender <= 21.5\ngini = 0.245\nsamples = 7\nvalue = [1, 6, 0]\nclass = Shirt", fillcolor="#5ae996"] ;
122 -> 166 ;
167 [label="gender <= 20.5\ngini = 0.444\nsamples = 3\nvalue = [1, 2, 0]\nclass = Shirt", fillcolor="#9cf2c0"] ;
166 -> 167 ;
168 [label="gini = 0.0\nsamples = 1\nvalue = [0, 1, 0]\nclass = Shirt", fillcolor="#39e581"] ;
167 -> 168 ;
169 [label="gini = 0.5\nsamples = 2\nvalue = [1, 1, 0]\nclass = Jacket", fillcolor="#ffffff"] ;
167 -> 169 ;
170 [label="gini = 0.0\nsamples = 4\nvalue = [0, 4, 0]\nclass = Shirt", fillcolor="#39e581"] ;
166 -> 170 ;
171 [label="age <= 1.5\ngini = 0.58\nsamples = 10\nvalue = [5, 4, 1]\nclass = Jacket", fillcolor="#fbeade"] ;
121 -> 171 ;
172 [label="gender <= 23.5\ngini = 0.594\nsamples = 8\nvalue = [3, 4, 1]\nclass = Shirt", fillcolor="#d7fae6"] ;
171 -> 172 ;
173 [label="gender <= 21.5\ngini = 0.612\nsamples = 7\nvalue = [3, 3, 1]\nclass = Jacket", fillcolor="#ffffff"] ;
172 -> 173 ;
174 [label="gender <= 20.5\ngini = 0.5\nsamples = 4\nvalue = [2, 2, 0]\nclass = Jacket", fillcolor="#ffffff"] ;
173 -> 174 ;
175 [label="gini = 0.5\nsamples = 2\nvalue = [1, 1, 0]\nclass = Jacket", fillcolor="#ffffff"] ;
174 -> 175 ;
176 [label="gini = 0.5\nsamples = 2\nvalue = [1, 1, 0]\nclass = Jacket", fillcolor="#ffffff"] ;
174 -> 176 ;
177 [label="gini = 0.667\nsamples = 3\nvalue = [1, 1, 1]\nclass = Jacket", fillcolor="#ffffff"] ;
173 -> 177 ;
178 [label="gini = 0.0\nsamples = 1\nvalue = [0, 1, 0]\nclass = Shirt", fillcolor="#39e581"] ;
172 -> 178 ;
179 [label="gini = 0.0\nsamples = 2\nvalue = [2, 0, 0]\nclass = Jacket", fillcolor="#e58139"] ;
171 -> 179 ;
180 [label="state <= 2.5\ngini = 0.616\nsamples = 244\nvalue = [98, 109, 37]\nclass = Shirt", fillcolor="#f0fdf6"] ;
110 -> 180 ;
181 [label="gender <= 33.0\ngini = 0.584\nsamples = 45\nvalue = [13, 25, 7]\nclass = Shirt", fillcolor="#b5f5d0"] ;
180 -> 181 ;
182 [label="gender <= 31.0\ngini = 0.375\nsamples = 8\nvalue = [0, 6, 2]\nclass = Shirt", fillcolor="#7beeab"] ;
181 -> 182 ;
183 [label="age <= 1.5\ngini = 0.444\nsamples = 6\nvalue = [0, 4, 2]\nclass = Shirt", fillcolor="#9cf2c0"] ;
182 -> 183 ;
184 [label="gender <= 27.5\ngini = 0.48\nsamples = 5\nvalue = [0, 3, 2]\nclass = Shirt", fillcolor="#bdf6d5"] ;
183 -> 184 ;
185 [label="gini = 0.5\nsamples = 2\nvalue = [0, 1, 1]\nclass = Shirt", fillcolor="#ffffff"] ;
184 -> 185 ;
186 [label="gender <= 29.5\ngini = 0.444\nsamples = 3\nvalue = [0, 2, 1]\nclass = Shirt", fillcolor="#9cf2c0"] ;
184 -> 186 ;
187 [label="gini = 0.0\nsamples = 1\nvalue = [0, 1, 0]\nclass = Shirt", fillcolor="#39e581"] ;
186 -> 187 ;
188 [label="gini = 0.5\nsamples = 2\nvalue = [0, 1, 1]\nclass = Shirt", fillcolor="#ffffff"] ;
186 -> 188 ;
189 [label="gini = 0.0\nsamples = 1\nvalue = [0, 1, 0]\nclass = Shirt", fillcolor="#39e581"] ;
183 -> 189 ;
190 [label="gini = 0.0\nsamples = 2\nvalue = [0, 2, 0]\nclass = Shirt", fillcolor="#39e581"] ;
182 -> 190 ;
191 [label="age <= 1.5\ngini = 0.595\nsamples = 37\nvalue = [13, 19, 5]\nclass = Shirt", fillcolor="#cef8e0"] ;
181 -> 191 ;
192 [label="gender <= 50.5\ngini = 0.589\nsamples = 31\nvalue = [9, 17, 5]\nclass = Shirt", fillcolor="#b7f6d1"] ;
191 -> 192 ;
193 [label="gender <= 46.5\ngini = 0.598\nsamples = 30\nvalue = [9, 16, 5]\nclass = Shirt", fillcolor="#bdf6d5"] ;
192 -> 193 ;
194 [label="gender <= 45.5\ngini = 0.558\nsamples = 22\nvalue = [6, 13, 3]\nclass = Shirt", fillcolor="#a8f4c8"] ;
193 -> 194 ;
195 [label="gender <= 43.5\ngini = 0.598\nsamples = 19\nvalue = [6, 10, 3]\nclass = Shirt", fillcolor="#c2f7d8"] ;
194 -> 195 ;
196 [label="gender <= 40.0\ngini = 0.554\nsamples = 17\nvalue = [5, 10, 2]\nclass = Shirt", fillcolor="#acf4ca"] ;
195 -> 196 ;
197 [label="gender <= 38.5\ngini = 0.611\nsamples = 12\nvalue = [4, 6, 2]\nclass = Shirt", fillcolor="#cef8e0"] ;
196 -> 197 ;
198 [label="age <= 0.5\ngini = 0.54\nsamples = 10\nvalue = [3, 6, 1]\nclass = Shirt", fillcolor="#aaf4c9"] ;
197 -> 198 ;
199 [label="gini = 0.0\nsamples = 1\nvalue = [0, 1, 0]\nclass = Shirt", fillcolor="#39e581"] ;
198 -> 199 ;
200 [label="gender <= 36.5\ngini = 0.568\nsamples = 9\nvalue = [3, 5, 1]\nclass = Shirt", fillcolor="#bdf6d5"] ;
198 -> 200 ;
201 [label="gender <= 35.0\ngini = 0.375\nsamples = 4\nvalue = [1, 3, 0]\nclass = Shirt", fillcolor="#7beeab"] ;
200 -> 201 ;
202 [label="gini = 0.444\nsamples = 3\nvalue = [1, 2, 0]\nclass = Shirt", fillcolor="#9cf2c0"] ;
201 -> 202 ;
203 [label="gini = 0.0\nsamples = 1\nvalue = [0, 1, 0]\nclass = Shirt", fillcolor="#39e581"] ;
201 -> 203 ;
204 [label="gender <= 37.5\ngini = 0.64\nsamples = 5\nvalue = [2, 2, 1]\nclass = Jacket", fillcolor="#ffffff"] ;
200 -> 204 ;
205 [label="gini = 0.0\nsamples = 1\nvalue = [1, 0, 0]\nclass = Jacket", fillcolor="#e58139"] ;
204 -> 205 ;
206 [label="gini = 0.625\nsamples = 4\nvalue = [1, 2, 1]\nclass = Shirt", fillcolor="#bdf6d5"] ;
204 -> 206 ;
207 [label="gini = 0.5\nsamples = 2\nvalue = [1, 0, 1]\nclass = Jacket", fillcolor="#ffffff"] ;
197 -> 207 ;
208 [label="age <= 0.5\ngini = 0.32\nsamples = 5\nvalue = [1, 4, 0]\nclass = Shirt", fillcolor="#6aeca0"] ;
196 -> 208 ;
209 [label="gini = 0.0\nsamples = 1\nvalue = [1, 0, 0]\nclass = Jacket", fillcolor="#e58139"] ;
208 -> 209 ;
210 [label="gini = 0.0\nsamples = 4\nvalue = [0, 4, 0]\nclass = Shirt", fillcolor="#39e581"] ;
208 -> 210 ;
211 [label="gender <= 44.5\ngini = 0.5\nsamples = 2\nvalue = [1, 0, 1]\nclass = Jacket", fillcolor="#ffffff"] ;
195 -> 211 ;
212 [label="gini = 0.0\nsamples = 1\nvalue = [0, 0, 1]\nclass = Trousers", fillcolor="#8139e5"] ;
211 -> 212 ;
213 [label="gini = 0.0\nsamples = 1\nvalue = [1, 0, 0]\nclass = Jacket", fillcolor="#e58139"] ;
211 -> 213 ;
214 [label="gini = 0.0\nsamples = 3\nvalue = [0, 3, 0]\nclass = Shirt", fillcolor="#39e581"] ;
194 -> 214 ;
215 [label="gender <= 48.5\ngini = 0.656\nsamples = 8\nvalue = [3, 3, 2]\nclass = Jacket", fillcolor="#ffffff"] ;
193 -> 215 ;
216 [label="gender <= 47.5\ngini = 0.625\nsamples = 4\nvalue = [1, 1, 2]\nclass = Trousers", fillcolor="#d5bdf6"] ;
215 -> 216 ;
217 [label="gini = 0.667\nsamples = 3\nvalue = [1, 1, 1]\nclass = Jacket", fillcolor="#ffffff"] ;
216 -> 217 ;
218 [label="gini = 0.0\nsamples = 1\nvalue = [0, 0, 1]\nclass = Trousers", fillcolor="#8139e5"] ;
216 -> 218 ;
219 [label="age <= 0.5\ngini = 0.5\nsamples = 4\nvalue = [2, 2, 0]\nclass = Jacket", fillcolor="#ffffff"] ;
215 -> 219 ;
220 [label="gini = 0.0\nsamples = 1\nvalue = [0, 1, 0]\nclass = Shirt", fillcolor="#39e581"] ;
219 -> 220 ;
221 [label="gender <= 49.5\ngini = 0.444\nsamples = 3\nvalue = [2, 1, 0]\nclass = Jacket", fillcolor="#f2c09c"] ;
219 -> 221 ;
222 [label="gini = 0.5\nsamples = 2\nvalue = [1, 1, 0]\nclass = Jacket", fillcolor="#ffffff"] ;
221 -> 222 ;
223 [label="gini = 0.0\nsamples = 1\nvalue = [1, 0, 0]\nclass = Jacket", fillcolor="#e58139"] ;
221 -> 223 ;
224 [label="gini = 0.0\nsamples = 1\nvalue = [0, 1, 0]\nclass = Shirt", fillcolor="#39e581"] ;
192 -> 224 ;
225 [label="gender <= 49.0\ngini = 0.444\nsamples = 6\nvalue = [4, 2, 0]\nclass = Jacket", fillcolor="#f2c09c"] ;
191 -> 225 ;
226 [label="gender <= 34.5\ngini = 0.5\nsamples = 4\nvalue = [2, 2, 0]\nclass = Jacket", fillcolor="#ffffff"] ;
225 -> 226 ;
227 [label="gini = 0.0\nsamples = 1\nvalue = [1, 0, 0]\nclass = Jacket", fillcolor="#e58139"] ;
226 -> 227 ;
228 [label="gender <= 41.5\ngini = 0.444\nsamples = 3\nvalue = [1, 2, 0]\nclass = Shirt", fillcolor="#9cf2c0"] ;
226 -> 228 ;
229 [label="gini = 0.5\nsamples = 2\nvalue = [1, 1, 0]\nclass = Jacket", fillcolor="#ffffff"] ;
228 -> 229 ;
230 [label="gini = 0.0\nsamples = 1\nvalue = [0, 1, 0]\nclass = Shirt", fillcolor="#39e581"] ;
228 -> 230 ;
231 [label="gini = 0.0\nsamples = 2\nvalue = [2, 0, 0]\nclass = Jacket", fillcolor="#e58139"] ;
225 -> 231 ;
232 [label="gender <= 49.5\ngini = 0.617\nsamples = 199\nvalue = [85, 84, 30]\nclass = Jacket", fillcolor="#fffefd"] ;
180 -> 232 ;
233 [label="gender <= 47.5\ngini = 0.621\nsamples = 181\nvalue = [79, 73, 29]\nclass = Jacket", fillcolor="#fef8f4"] ;
232 -> 233 ;
234 [label="age <= 1.5\ngini = 0.612\nsamples = 168\nvalue = [75, 69, 24]\nclass = Jacket", fillcolor="#fdf7f3"] ;
233 -> 234 ;
235 [label="state <= 5.5\ngini = 0.601\nsamples = 140\nvalue = [66, 56, 18]\nclass = Jacket", fillcolor="#fcf0e7"] ;
234 -> 235 ;
236 [label="gender <= 27.5\ngini = 0.619\nsamples = 97\nvalue = [41, 41, 15]\nclass = Jacket", fillcolor="#ffffff"] ;
235 -> 236 ;
237 [label="state <= 3.5\ngini = 0.625\nsamples = 16\nvalue = [8, 4, 4]\nclass = Jacket", fillcolor="#f6d5bd"] ;
236 -> 237 ;
238 [label="gender <= 26.5\ngini = 0.612\nsamples = 7\nvalue = [3, 3, 1]\nclass = Jacket", fillcolor="#ffffff"] ;
237 -> 238 ;
239 [label="gini = 0.444\nsamples = 3\nvalue = [2, 1, 0]\nclass = Jacket", fillcolor="#f2c09c"] ;
238 -> 239 ;
240 [label="gini = 0.625\nsamples = 4\nvalue = [1, 2, 1]\nclass = Shirt", fillcolor="#bdf6d5"] ;
238 -> 240 ;
241 [label="age <= 0.5\ngini = 0.568\nsamples = 9\nvalue = [5, 1, 3]\nclass = Jacket", fillcolor="#f6d5bd"] ;
237 -> 241 ;
242 [label="gini = 0.0\nsamples = 1\nvalue = [1, 0, 0]\nclass = Jacket", fillcolor="#e58139"] ;
241 -> 242 ;
243 [label="gender <= 26.5\ngini = 0.594\nsamples = 8\nvalue = [4, 1, 3]\nclass = Jacket", fillcolor="#fae6d7"] ;
241 -> 243 ;
244 [label="gini = 0.0\nsamples = 1\nvalue = [0, 0, 1]\nclass = Trousers", fillcolor="#8139e5"] ;
243 -> 244 ;
245 [label="state <= 4.5\ngini = 0.571\nsamples = 7\nvalue = [4, 1, 2]\nclass = Jacket", fillcolor="#f5cdb0"] ;
243 -> 245 ;
246 [label="gini = 0.5\nsamples = 2\nvalue = [1, 0, 1]\nclass = Jacket", fillcolor="#ffffff"] ;
245 -> 246 ;
247 [label="gini = 0.56\nsamples = 5\nvalue = [3, 1, 1]\nclass = Jacket", fillcolor="#f2c09c"] ;
245 -> 247 ;
248 [label="gender <= 29.5\ngini = 0.607\nsamples = 81\nvalue = [33, 37, 11]\nclass = Shirt", fillcolor="#eefdf4"] ;
236 -> 248 ;
249 [label="state <= 4.5\ngini = 0.486\nsamples = 12\nvalue = [3, 8, 1]\nclass = Shirt", fillcolor="#91f1b9"] ;
248 -> 249 ;
250 [label="state <= 3.5\ngini = 0.594\nsamples = 8\nvalue = [3, 4, 1]\nclass = Shirt", fillcolor="#d7fae6"] ;
249 -> 250 ;
251 [label="gender <= 28.5\ngini = 0.375\nsamples = 4\nvalue = [1, 3, 0]\nclass = Shirt", fillcolor="#7beeab"] ;
250 -> 251 ;
252 [label="gini = 0.0\nsamples = 1\nvalue = [0, 1, 0]\nclass = Shirt", fillcolor="#39e581"] ;
251 -> 252 ;
253 [label="age <= 0.5\ngini = 0.444\nsamples = 3\nvalue = [1, 2, 0]\nclass = Shirt", fillcolor="#9cf2c0"] ;
251 -> 253 ;
254 [label="gini = 0.0\nsamples = 1\nvalue = [0, 1, 0]\nclass = Shirt", fillcolor="#39e581"] ;
253 -> 254 ;
255 [label="gini = 0.5\nsamples = 2\nvalue = [1, 1, 0]\nclass = Jacket", fillcolor="#ffffff"] ;
253 -> 255 ;
256 [label="gini = 0.625\nsamples = 4\nvalue = [2, 1, 1]\nclass = Jacket", fillcolor="#f6d5bd"] ;
250 -> 256 ;
257 [label="gini = 0.0\nsamples = 4\nvalue = [0, 4, 0]\nclass = Shirt", fillcolor="#39e581"] ;
249 -> 257 ;
258 [label="gender <= 32.5\ngini = 0.613\nsamples = 69\nvalue = [30, 29, 10]\nclass = Jacket", fillcolor="#fefcfa"] ;
248 -> 258 ;
259 [label="state <= 3.5\ngini = 0.571\nsamples = 14\nvalue = [8, 4, 2]\nclass = Jacket", fillcolor="#f5cdb0"] ;
258 -> 259 ;
260 [label="age <= 0.5\ngini = 0.625\nsamples = 4\nvalue = [1, 2, 1]\nclass = Shirt", fillcolor="#bdf6d5"] ;
259 -> 260 ;
261 [label="gini = 0.0\nsamples = 1\nvalue = [1, 0, 0]\nclass = Jacket", fillcolor="#e58139"] ;
260 -> 261 ;
262 [label="gini = 0.444\nsamples = 3\nvalue = [0, 2, 1]\nclass = Shirt", fillcolor="#9cf2c0"] ;
260 -> 262 ;
263 [label="gender <= 30.5\ngini = 0.46\nsamples = 10\nvalue = [7, 2, 1]\nclass = Jacket", fillcolor="#efb083"] ;
259 -> 263 ;
264 [label="age <= 0.5\ngini = 0.64\nsamples = 5\nvalue = [2, 2, 1]\nclass = Jacket", fillcolor="#ffffff"] ;
263 -> 264 ;
265 [label="gini = 0.0\nsamples = 1\nvalue = [0, 1, 0]\nclass = Shirt", fillcolor="#39e581"] ;
264 -> 265 ;
266 [label="state <= 4.5\ngini = 0.625\nsamples = 4\nvalue = [2, 1, 1]\nclass = Jacket", fillcolor="#f6d5bd"] ;
264 -> 266 ;
267 [label="gini = 0.0\nsamples = 1\nvalue = [1, 0, 0]\nclass = Jacket", fillcolor="#e58139"] ;
266 -> 267 ;
268 [label="gini = 0.667\nsamples = 3\nvalue = [1, 1, 1]\nclass = Jacket", fillcolor="#ffffff"] ;
266 -> 268 ;
269 [label="gini = 0.0\nsamples = 5\nvalue = [5, 0, 0]\nclass = Jacket", fillcolor="#e58139"] ;
263 -> 269 ;
270 [label="state <= 3.5\ngini = 0.612\nsamples = 55\nvalue = [22, 25, 8]\nclass = Shirt", fillcolor="#edfdf4"] ;
258 -> 270 ;
271 [label="age <= 0.5\ngini = 0.649\nsamples = 21\nvalue = [9, 7, 5]\nclass = Jacket", fillcolor="#fbede3"] ;
270 -> 271 ;
272 [label="gender <= 41.5\ngini = 0.444\nsamples = 3\nvalue = [0, 2, 1]\nclass = Shirt", fillcolor="#9cf2c0"] ;
271 -> 272 ;
273 [label="gini = 0.0\nsamples = 1\nvalue = [0, 0, 1]\nclass = Trousers", fillcolor="#8139e5"] ;
272 -> 273 ;
274 [label="gini = 0.0\nsamples = 2\nvalue = [0, 2, 0]\nclass = Shirt", fillcolor="#39e581"] ;
272 -> 274 ;
275 [label="gender <= 44.5\ngini = 0.623\nsamples = 18\nvalue = [9, 5, 4]\nclass = Jacket", fillcolor="#f7d8c2"] ;
271 -> 275 ;
276 [label="gender <= 43.5\ngini = 0.658\nsamples = 15\nvalue = [6, 5, 4]\nclass = Jacket", fillcolor="#fcf2eb"] ;
275 -> 276 ;
277 [label="gender <= 42.5\ngini = 0.643\nsamples = 14\nvalue = [6, 5, 3]\nclass = Jacket", fillcolor="#fcf1e9"] ;
276 -> 277 ;
278 [label="gender <= 40.0\ngini = 0.639\nsamples = 13\nvalue = [6, 4, 3]\nclass = Jacket", fillcolor="#f9e3d3"] ;
277 -> 278 ;
279 [label="gender <= 33.5\ngini = 0.64\nsamples = 10\nvalue = [4, 4, 2]\nclass = Jacket", fillcolor="#ffffff"] ;
278 -> 279 ;
280 [label="gini = 0.0\nsamples = 1\nvalue = [1, 0, 0]\nclass = Jacket", fillcolor="#e58139"] ;
279 -> 280 ;
281 [label="gender <= 38.0\ngini = 0.642\nsamples = 9\nvalue = [3, 4, 2]\nclass = Shirt", fillcolor="#defbea"] ;
279 -> 281 ;
282 [label="gender <= 36.0\ngini = 0.653\nsamples = 7\nvalue = [2, 3, 2]\nclass = Shirt", fillcolor="#d7fae6"] ;
281 -> 282 ;
283 [label="gender <= 34.5\ngini = 0.64\nsamples = 5\nvalue = [2, 2, 1]\nclass = Jacket", fillcolor="#ffffff"] ;
282 -> 283 ;
284 [label="gini = 0.625\nsamples = 4\nvalue = [1, 2, 1]\nclass = Shirt", fillcolor="#bdf6d5"] ;
283 -> 284 ;
285 [label="gini = 0.0\nsamples = 1\nvalue = [1, 0, 0]\nclass = Jacket", fillcolor="#e58139"] ;
283 -> 285 ;
286 [label="gini = 0.5\nsamples = 2\nvalue = [0, 1, 1]\nclass = Shirt", fillcolor="#ffffff"] ;
282 -> 286 ;
287 [label="gini = 0.5\nsamples = 2\nvalue = [1, 1, 0]\nclass = Jacket", fillcolor="#ffffff"] ;
281 -> 287 ;
288 [label="gender <= 41.5\ngini = 0.444\nsamples = 3\nvalue = [2, 0, 1]\nclass = Jacket", fillcolor="#f2c09c"] ;
278 -> 288 ;
289 [label="gini = 0.0\nsamples = 1\nvalue = [1, 0, 0]\nclass = Jacket", fillcolor="#e58139"] ;
288 -> 289 ;
290 [label="gini = 0.5\nsamples = 2\nvalue = [1, 0, 1]\nclass = Jacket", fillcolor="#ffffff"] ;
288 -> 290 ;
291 [label="gini = 0.0\nsamples = 1\nvalue = [0, 1, 0]\nclass = Shirt", fillcolor="#39e581"] ;
277 -> 291 ;
292 [label="gini = 0.0\nsamples = 1\nvalue = [0, 0, 1]\nclass = Trousers", fillcolor="#8139e5"] ;
276 -> 292 ;
293 [label="gini = 0.0\nsamples = 3\nvalue = [3, 0, 0]\nclass = Jacket", fillcolor="#e58139"] ;
275 -> 293 ;
294 [label="gender <= 33.5\ngini = 0.566\nsamples = 34\nvalue = [13, 18, 3]\nclass = Shirt", fillcolor="#d0f9e1"] ;
270 -> 294 ;
295 [label="gini = 0.0\nsamples = 3\nvalue = [0, 3, 0]\nclass = Shirt", fillcolor="#39e581"] ;
294 -> 295 ;
296 [label="gender <= 35.5\ngini = 0.581\nsamples = 31\nvalue = [13, 15, 3]\nclass = Shirt", fillcolor="#e9fcf1"] ;
294 -> 296 ;
297 [label="state <= 4.5\ngini = 0.531\nsamples = 8\nvalue = [5, 2, 1]\nclass = Jacket", fillcolor="#f2c09c"] ;
296 -> 297 ;
298 [label="gini = 0.0\nsamples = 3\nvalue = [3, 0, 0]\nclass = Jacket", fillcolor="#e58139"] ;
297 -> 298 ;
299 [label="age <= 0.5\ngini = 0.64\nsamples = 5\nvalue = [2, 2, 1]\nclass = Jacket", fillcolor="#ffffff"] ;
297 -> 299 ;
300 [label="gini = 0.0\nsamples = 1\nvalue = [1, 0, 0]\nclass = Jacket", fillcolor="#e58139"] ;
299 -> 300 ;
301 [label="gender <= 34.5\ngini = 0.625\nsamples = 4\nvalue = [1, 2, 1]\nclass = Shirt", fillcolor="#bdf6d5"] ;
299 -> 301 ;
302 [label="gini = 0.0\nsamples = 1\nvalue = [0, 1, 0]\nclass = Shirt", fillcolor="#39e581"] ;
301 -> 302 ;
303 [label="gini = 0.667\nsamples = 3\nvalue = [1, 1, 1]\nclass = Jacket", fillcolor="#ffffff"] ;
301 -> 303 ;
304 [label="gender <= 43.5\ngini = 0.552\nsamples = 23\nvalue = [8, 13, 2]\nclass = Shirt", fillcolor="#bdf6d5"] ;
296 -> 304 ;
305 [label="state <= 4.5\ngini = 0.43\nsamples = 11\nvalue = [2, 8, 1]\nclass = Shirt", fillcolor="#7beeab"] ;
304 -> 305 ;
306 [label="gini = 0.0\nsamples = 6\nvalue = [0, 6, 0]\nclass = Shirt", fillcolor="#39e581"] ;
305 -> 306 ;
307 [label="gender <= 38.5\ngini = 0.64\nsamples = 5\nvalue = [2, 2, 1]\nclass = Jacket", fillcolor="#ffffff"] ;
305 -> 307 ;
308 [label="gender <= 37.0\ngini = 0.625\nsamples = 4\nvalue = [1, 2, 1]\nclass = Shirt", fillcolor="#bdf6d5"] ;
307 -> 308 ;
309 [label="gini = 0.5\nsamples = 2\nvalue = [1, 1, 0]\nclass = Jacket", fillcolor="#ffffff"] ;
308 -> 309 ;
310 [label="gini = 0.5\nsamples = 2\nvalue = [0, 1, 1]\nclass = Shirt", fillcolor="#ffffff"] ;
308 -> 310 ;
311 [label="gini = 0.0\nsamples = 1\nvalue = [1, 0, 0]\nclass = Jacket", fillcolor="#e58139"] ;
307 -> 311 ;
312 [label="age <= 0.5\ngini = 0.569\nsamples = 12\nvalue = [6, 5, 1]\nclass = Jacket", fillcolor="#fbede3"] ;
304 -> 312 ;
313 [label="gini = 0.0\nsamples = 1\nvalue = [0, 1, 0]\nclass = Shirt", fillcolor="#39e581"] ;
312 -> 313 ;
314 [label="state <= 4.5\ngini = 0.562\nsamples = 11\nvalue = [6, 4, 1]\nclass = Jacket", fillcolor="#f8dbc6"] ;
312 -> 314 ;
315 [label="gini = 0.0\nsamples = 3\nvalue = [3, 0, 0]\nclass = Jacket", fillcolor="#e58139"] ;
314 -> 315 ;
316 [label="gender <= 44.5\ngini = 0.594\nsamples = 8\nvalue = [3, 4, 1]\nclass = Shirt", fillcolor="#d7fae6"] ;
314 -> 316 ;
317 [label="gini = 0.0\nsamples = 1\nvalue = [0, 1, 0]\nclass = Shirt", fillcolor="#39e581"] ;
316 -> 317 ;
318 [label="gender <= 45.5\ngini = 0.612\nsamples = 7\nvalue = [3, 3, 1]\nclass = Jacket", fillcolor="#ffffff"] ;
316 -> 318 ;
319 [label="gini = 0.625\nsamples = 4\nvalue = [2, 1, 1]\nclass = Jacket", fillcolor="#f6d5bd"] ;
318 -> 319 ;
320 [label="gini = 0.444\nsamples = 3\nvalue = [1, 2, 0]\nclass = Shirt", fillcolor="#9cf2c0"] ;
318 -> 320 ;
321 [label="gender <= 32.5\ngini = 0.535\nsamples = 43\nvalue = [25, 15, 3]\nclass = Jacket", fillcolor="#f6d2b8"] ;
235 -> 321 ;
322 [label="state <= 6.5\ngini = 0.444\nsamples = 12\nvalue = [4, 8, 0]\nclass = Shirt", fillcolor="#9cf2c0"] ;
321 -> 322 ;
323 [label="gender <= 27.5\ngini = 0.444\nsamples = 6\nvalue = [4, 2, 0]\nclass = Jacket", fillcolor="#f2c09c"] ;
322 -> 323 ;
324 [label="gini = 0.0\nsamples = 1\nvalue = [1, 0, 0]\nclass = Jacket", fillcolor="#e58139"] ;
323 -> 324 ;
325 [label="gender <= 29.0\ngini = 0.48\nsamples = 5\nvalue = [3, 2, 0]\nclass = Jacket", fillcolor="#f6d5bd"] ;
323 -> 325 ;
326 [label="gini = 0.0\nsamples = 1\nvalue = [0, 1, 0]\nclass = Shirt", fillcolor="#39e581"] ;
325 -> 326 ;
327 [label="gender <= 31.5\ngini = 0.375\nsamples = 4\nvalue = [3, 1, 0]\nclass = Jacket", fillcolor="#eeab7b"] ;
325 -> 327 ;
328 [label="gini = 0.0\nsamples = 2\nvalue = [2, 0, 0]\nclass = Jacket", fillcolor="#e58139"] ;
327 -> 328 ;
329 [label="age <= 0.5\ngini = 0.5\nsamples = 2\nvalue = [1, 1, 0]\nclass = Jacket", fillcolor="#ffffff"] ;
327 -> 329 ;
330 [label="gini = 0.0\nsamples = 1\nvalue = [1, 0, 0]\nclass = Jacket", fillcolor="#e58139"] ;
329 -> 330 ;
331 [label="gini = 0.0\nsamples = 1\nvalue = [0, 1, 0]\nclass = Shirt", fillcolor="#39e581"] ;
329 -> 331 ;
332 [label="gini = 0.0\nsamples = 6\nvalue = [0, 6, 0]\nclass = Shirt", fillcolor="#39e581"] ;
322 -> 332 ;
333 [label="gender <= 37.5\ngini = 0.481\nsamples = 31\nvalue = [21, 7, 3]\nclass = Jacket", fillcolor="#f0b68c"] ;
321 -> 333 ;
334 [label="state <= 6.5\ngini = 0.595\nsamples = 11\nvalue = [6, 3, 2]\nclass = Jacket", fillcolor="#f5d0b5"] ;
333 -> 334 ;
335 [label="gender <= 36.5\ngini = 0.611\nsamples = 6\nvalue = [2, 3, 1]\nclass = Shirt", fillcolor="#cef8e0"] ;
334 -> 335 ;
336 [label="age <= 0.5\ngini = 0.625\nsamples = 4\nvalue = [2, 1, 1]\nclass = Jacket", fillcolor="#f6d5bd"] ;
335 -> 336 ;
337 [label="gini = 0.0\nsamples = 1\nvalue = [0, 1, 0]\nclass = Shirt", fillcolor="#39e581"] ;
336 -> 337 ;
338 [label="gender <= 35.0\ngini = 0.444\nsamples = 3\nvalue = [2, 0, 1]\nclass = Jacket", fillcolor="#f2c09c"] ;
336 -> 338 ;
339 [label="gini = 0.0\nsamples = 1\nvalue = [1, 0, 0]\nclass = Jacket", fillcolor="#e58139"] ;
338 -> 339 ;
340 [label="gini = 0.5\nsamples = 2\nvalue = [1, 0, 1]\nclass = Jacket", fillcolor="#ffffff"] ;
338 -> 340 ;
341 [label="gini = 0.0\nsamples = 2\nvalue = [0, 2, 0]\nclass = Shirt", fillcolor="#39e581"] ;
335 -> 341 ;
342 [label="gender <= 36.5\ngini = 0.32\nsamples = 5\nvalue = [4, 0, 1]\nclass = Jacket", fillcolor="#eca06a"] ;
334 -> 342 ;
343 [label="gini = 0.0\nsamples = 3\nvalue = [3, 0, 0]\nclass = Jacket", fillcolor="#e58139"] ;
342 -> 343 ;
344 [label="gini = 0.5\nsamples = 2\nvalue = [1, 0, 1]\nclass = Jacket", fillcolor="#ffffff"] ;
342 -> 344 ;
345 [label="gender <= 41.5\ngini = 0.395\nsamples = 20\nvalue = [15, 4, 1]\nclass = Jacket", fillcolor="#eda877"] ;
333 -> 345 ;
346 [label="gini = 0.0\nsamples = 7\nvalue = [7, 0, 0]\nclass = Jacket", fillcolor="#e58139"] ;
345 -> 346 ;
347 [label="gender <= 43.5\ngini = 0.521\nsamples = 13\nvalue = [8, 4, 1]\nclass = Jacket", fillcolor="#f3c7a7"] ;
345 -> 347 ;
348 [label="state <= 6.5\ngini = 0.48\nsamples = 5\nvalue = [2, 3, 0]\nclass = Shirt", fillcolor="#bdf6d5"] ;
347 -> 348 ;
349 [label="gini = 0.0\nsamples = 2\nvalue = [2, 0, 0]\nclass = Jacket", fillcolor="#e58139"] ;
348 -> 349 ;
350 [label="gini = 0.0\nsamples = 3\nvalue = [0, 3, 0]\nclass = Shirt", fillcolor="#39e581"] ;
348 -> 350 ;
351 [label="state <= 6.5\ngini = 0.406\nsamples = 8\nvalue = [6, 1, 1]\nclass = Jacket", fillcolor="#eca572"] ;
347 -> 351 ;
352 [label="gender <= 44.5\ngini = 0.5\nsamples = 2\nvalue = [1, 1, 0]\nclass = Jacket", fillcolor="#ffffff"] ;
351 -> 352 ;
353 [label="gini = 0.0\nsamples = 1\nvalue = [1, 0, 0]\nclass = Jacket", fillcolor="#e58139"] ;
352 -> 353 ;
354 [label="gini = 0.0\nsamples = 1\nvalue = [0, 1, 0]\nclass = Shirt", fillcolor="#39e581"] ;
352 -> 354 ;
355 [label="gender <= 45.5\ngini = 0.278\nsamples = 6\nvalue = [5, 0, 1]\nclass = Jacket", fillcolor="#ea9a61"] ;
351 -> 355 ;
356 [label="gini = 0.0\nsamples = 3\nvalue = [3, 0, 0]\nclass = Jacket", fillcolor="#e58139"] ;
355 -> 356 ;
357 [label="gender <= 46.5\ngini = 0.444\nsamples = 3\nvalue = [2, 0, 1]\nclass = Jacket", fillcolor="#f2c09c"] ;
355 -> 357 ;
358 [label="gini = 0.5\nsamples = 2\nvalue = [1, 0, 1]\nclass = Jacket", fillcolor="#ffffff"] ;
357 -> 358 ;
359 [label="gini = 0.0\nsamples = 1\nvalue = [1, 0, 0]\nclass = Jacket", fillcolor="#e58139"] ;
357 -> 359 ;
360 [label="gender <= 33.5\ngini = 0.635\nsamples = 28\nvalue = [9, 13, 6]\nclass = Shirt", fillcolor="#d5fae4"] ;
234 -> 360 ;
361 [label="gender <= 26.5\ngini = 0.531\nsamples = 8\nvalue = [5, 2, 1]\nclass = Jacket", fillcolor="#f2c09c"] ;
360 -> 361 ;
362 [label="state <= 3.5\ngini = 0.444\nsamples = 3\nvalue = [1, 2, 0]\nclass = Shirt", fillcolor="#9cf2c0"] ;
361 -> 362 ;
363 [label="gini = 0.0\nsamples = 1\nvalue = [1, 0, 0]\nclass = Jacket", fillcolor="#e58139"] ;
362 -> 363 ;
364 [label="gini = 0.0\nsamples = 2\nvalue = [0, 2, 0]\nclass = Shirt", fillcolor="#39e581"] ;
362 -> 364 ;
365 [label="state <= 4.5\ngini = 0.32\nsamples = 5\nvalue = [4, 0, 1]\nclass = Jacket", fillcolor="#eca06a"] ;
361 -> 365 ;
366 [label="state <= 3.5\ngini = 0.5\nsamples = 2\nvalue = [1, 0, 1]\nclass = Jacket", fillcolor="#ffffff"] ;
365 -> 366 ;
367 [label="gini = 0.0\nsamples = 1\nvalue = [1, 0, 0]\nclass = Jacket", fillcolor="#e58139"] ;
366 -> 367 ;
368 [label="gini = 0.0\nsamples = 1\nvalue = [0, 0, 1]\nclass = Trousers", fillcolor="#8139e5"] ;
366 -> 368 ;
369 [label="gini = 0.0\nsamples = 3\nvalue = [3, 0, 0]\nclass = Jacket", fillcolor="#e58139"] ;
365 -> 369 ;
370 [label="gender <= 40.5\ngini = 0.595\nsamples = 20\nvalue = [4, 11, 5]\nclass = Shirt", fillcolor="#b0f5cd"] ;
360 -> 370 ;
371 [label="gender <= 39.0\ngini = 0.32\nsamples = 5\nvalue = [0, 4, 1]\nclass = Shirt", fillcolor="#6aeca0"] ;
370 -> 371 ;
372 [label="state <= 6.5\ngini = 0.444\nsamples = 3\nvalue = [0, 2, 1]\nclass = Shirt", fillcolor="#9cf2c0"] ;
371 -> 372 ;
373 [label="gini = 0.5\nsamples = 2\nvalue = [0, 1, 1]\nclass = Shirt", fillcolor="#ffffff"] ;
372 -> 373 ;
374 [label="gini = 0.0\nsamples = 1\nvalue = [0, 1, 0]\nclass = Shirt", fillcolor="#39e581"] ;
372 -> 374 ;
375 [label="gini = 0.0\nsamples = 2\nvalue = [0, 2, 0]\nclass = Shirt", fillcolor="#39e581"] ;
371 -> 375 ;
376 [label="gender <= 46.5\ngini = 0.64\nsamples = 15\nvalue = [4, 7, 4]\nclass = Shirt", fillcolor="#c9f8dd"] ;
370 -> 376 ;
377 [label="state <= 4.5\ngini = 0.663\nsamples = 13\nvalue = [4, 5, 4]\nclass = Shirt", fillcolor="#e9fcf1"] ;
376 -> 377 ;
378 [label="gender <= 43.5\ngini = 0.375\nsamples = 4\nvalue = [0, 3, 1]\nclass = Shirt", fillcolor="#7beeab"] ;
377 -> 378 ;
379 [label="gender <= 42.5\ngini = 0.5\nsamples = 2\nvalue = [0, 1, 1]\nclass = Shirt", fillcolor="#ffffff"] ;
378 -> 379 ;
380 [label="gini = 0.0\nsamples = 1\nvalue = [0, 1, 0]\nclass = Shirt", fillcolor="#39e581"] ;
379 -> 380 ;
381 [label="gini = 0.0\nsamples = 1\nvalue = [0, 0, 1]\nclass = Trousers", fillcolor="#8139e5"] ;
379 -> 381 ;
382 [label="gini = 0.0\nsamples = 2\nvalue = [0, 2, 0]\nclass = Shirt", fillcolor="#39e581"] ;
378 -> 382 ;
383 [label="gender <= 41.5\ngini = 0.642\nsamples = 9\nvalue = [4, 2, 3]\nclass = Jacket", fillcolor="#fbeade"] ;
377 -> 383 ;
384 [label="gini = 0.0\nsamples = 1\nvalue = [0, 0, 1]\nclass = Trousers", fillcolor="#8139e5"] ;
383 -> 384 ;
385 [label="gender <= 44.0\ngini = 0.625\nsamples = 8\nvalue = [4, 2, 2]\nclass = Jacket", fillcolor="#f6d5bd"] ;
383 -> 385 ;
386 [label="state <= 5.5\ngini = 0.64\nsamples = 5\nvalue = [2, 2, 1]\nclass = Jacket", fillcolor="#ffffff"] ;
385 -> 386 ;
387 [label="gini = 0.0\nsamples = 1\nvalue = [0, 1, 0]\nclass = Shirt", fillcolor="#39e581"] ;
386 -> 387 ;
388 [label="gender <= 42.5\ngini = 0.625\nsamples = 4\nvalue = [2, 1, 1]\nclass = Jacket", fillcolor="#f6d5bd"] ;
386 -> 388 ;
389 [label="gini = 0.0\nsamples = 1\nvalue = [1, 0, 0]\nclass = Jacket", fillcolor="#e58139"] ;
388 -> 389 ;
390 [label="gini = 0.667\nsamples = 3\nvalue = [1, 1, 1]\nclass = Jacket", fillcolor="#ffffff"] ;
388 -> 390 ;
391 [label="state <= 5.5\ngini = 0.444\nsamples = 3\nvalue = [2, 0, 1]\nclass = Jacket", fillcolor="#f2c09c"] ;
385 -> 391 ;
392 [label="gini = 0.0\nsamples = 1\nvalue = [1, 0, 0]\nclass = Jacket", fillcolor="#e58139"] ;
391 -> 392 ;
393 [label="state <= 6.5\ngini = 0.5\nsamples = 2\nvalue = [1, 0, 1]\nclass = Jacket", fillcolor="#ffffff"] ;
391 -> 393 ;
394 [label="gini = 0.0\nsamples = 1\nvalue = [0, 0, 1]\nclass = Trousers", fillcolor="#8139e5"] ;
393 -> 394 ;
395 [label="gini = 0.0\nsamples = 1\nvalue = [1, 0, 0]\nclass = Jacket", fillcolor="#e58139"] ;
393 -> 395 ;
396 [label="gini = 0.0\nsamples = 2\nvalue = [0, 2, 0]\nclass = Shirt", fillcolor="#39e581"] ;
376 -> 396 ;
397 [label="state <= 5.5\ngini = 0.663\nsamples = 13\nvalue = [4, 4, 5]\nclass = Trousers", fillcolor="#f1e9fc"] ;
233 -> 397 ;
398 [label="gender <= 48.5\ngini = 0.32\nsamples = 5\nvalue = [0, 1, 4]\nclass = Trousers", fillcolor="#a06aec"] ;
397 -> 398 ;
399 [label="state <= 4.5\ngini = 0.444\nsamples = 3\nvalue = [0, 1, 2]\nclass = Trousers", fillcolor="#c09cf2"] ;
398 -> 399 ;
400 [label="age <= 1.5\ngini = 0.5\nsamples = 2\nvalue = [0, 1, 1]\nclass = Shirt", fillcolor="#ffffff"] ;
399 -> 400 ;
401 [label="gini = 0.0\nsamples = 1\nvalue = [0, 1, 0]\nclass = Shirt", fillcolor="#39e581"] ;
400 -> 401 ;
402 [label="gini = 0.0\nsamples = 1\nvalue = [0, 0, 1]\nclass = Trousers", fillcolor="#8139e5"] ;
400 -> 402 ;
403 [label="gini = 0.0\nsamples = 1\nvalue = [0, 0, 1]\nclass = Trousers", fillcolor="#8139e5"] ;
399 -> 403 ;
404 [label="gini = 0.0\nsamples = 2\nvalue = [0, 0, 2]\nclass = Trousers", fillcolor="#8139e5"] ;
398 -> 404 ;
405 [label="state <= 6.5\ngini = 0.594\nsamples = 8\nvalue = [4, 3, 1]\nclass = Jacket", fillcolor="#fae6d7"] ;
397 -> 405 ;
406 [label="gini = 0.0\nsamples = 2\nvalue = [2, 0, 0]\nclass = Jacket", fillcolor="#e58139"] ;
405 -> 406 ;
407 [label="gender <= 48.5\ngini = 0.611\nsamples = 6\nvalue = [2, 3, 1]\nclass = Shirt", fillcolor="#cef8e0"] ;
405 -> 407 ;
408 [label="gini = 0.667\nsamples = 3\nvalue = [1, 1, 1]\nclass = Jacket", fillcolor="#ffffff"] ;
407 -> 408 ;
409 [label="gini = 0.444\nsamples = 3\nvalue = [1, 2, 0]\nclass = Shirt", fillcolor="#9cf2c0"] ;
407 -> 409 ;
410 [label="age <= 0.5\ngini = 0.512\nsamples = 18\nvalue = [6, 11, 1]\nclass = Shirt", fillcolor="#acf4ca"] ;
232 -> 410 ;
411 [label="state <= 5.5\ngini = 0.48\nsamples = 5\nvalue = [3, 2, 0]\nclass = Jacket", fillcolor="#f6d5bd"] ;
410 -> 411 ;
412 [label="state <= 3.5\ngini = 0.375\nsamples = 4\nvalue = [3, 1, 0]\nclass = Jacket", fillcolor="#eeab7b"] ;
411 -> 412 ;
413 [label="gini = 0.5\nsamples = 2\nvalue = [1, 1, 0]\nclass = Jacket", fillcolor="#ffffff"] ;
412 -> 413 ;
414 [label="gini = 0.0\nsamples = 2\nvalue = [2, 0, 0]\nclass = Jacket", fillcolor="#e58139"] ;
412 -> 414 ;
415 [label="gini = 0.0\nsamples = 1\nvalue = [0, 1, 0]\nclass = Shirt", fillcolor="#39e581"] ;
411 -> 415 ;
416 [label="state <= 4.5\ngini = 0.462\nsamples = 13\nvalue = [3, 9, 1]\nclass = Shirt", fillcolor="#88efb3"] ;
410 -> 416 ;
417 [label="gini = 0.0\nsamples = 6\nvalue = [0, 6, 0]\nclass = Shirt", fillcolor="#39e581"] ;
416 -> 417 ;
418 [label="state <= 6.5\ngini = 0.612\nsamples = 7\nvalue = [3, 3, 1]\nclass = Jacket", fillcolor="#ffffff"] ;
416 -> 418 ;
419 [label="gender <= 50.5\ngini = 0.56\nsamples = 5\nvalue = [3, 1, 1]\nclass = Jacket", fillcolor="#f2c09c"] ;
418 -> 419 ;
420 [label="gini = 0.0\nsamples = 1\nvalue = [0, 1, 0]\nclass = Shirt", fillcolor="#39e581"] ;
419 -> 420 ;
421 [label="gender <= 51.5\ngini = 0.375\nsamples = 4\nvalue = [3, 0, 1]\nclass = Jacket", fillcolor="#eeab7b"] ;
419 -> 421 ;
422 [label="gini = 0.0\nsamples = 2\nvalue = [2, 0, 0]\nclass = Jacket", fillcolor="#e58139"] ;
421 -> 422 ;
423 [label="state <= 5.5\ngini = 0.5\nsamples = 2\nvalue = [1, 0, 1]\nclass = Jacket", fillcolor="#ffffff"] ;
421 -> 423 ;
424 [label="gini = 0.0\nsamples = 1\nvalue = [0, 0, 1]\nclass = Trousers", fillcolor="#8139e5"] ;
423 -> 424 ;
425 [label="gini = 0.0\nsamples = 1\nvalue = [1, 0, 0]\nclass = Jacket", fillcolor="#e58139"] ;
423 -> 425 ;
426 [label="gini = 0.0\nsamples = 2\nvalue = [0, 2, 0]\nclass = Shirt", fillcolor="#39e581"] ;
418 -> 426 ;
427 [label="state <= 6.5\ngini = 0.646\nsamples = 296\nvalue = [124, 107, 65]\nclass = Jacket", fillcolor="#fdf4ed"] ;
1 -> 427 ;
428 [label="gender <= 68.5\ngini = 0.643\nsamples = 269\nvalue = [111, 102, 56]\nclass = Jacket", fillcolor="#fef8f4"] ;
427 -> 428 ;
429 [label="state <= 4.5\ngini = 0.627\nsamples = 214\nvalue = [94, 83, 37]\nclass = Jacket", fillcolor="#fdf4ee"] ;
428 -> 429 ;
430 [label="state <= 3.5\ngini = 0.615\nsamples = 161\nvalue = [77, 58, 26]\nclass = Jacket", fillcolor="#fae8da"] ;
429 -> 430 ;
431 [label="gender <= 64.5\ngini = 0.626\nsamples = 122\nvalue = [54, 47, 21]\nclass = Jacket", fillcolor="#fdf3ed"] ;
430 -> 431 ;
432 [label="age <= 0.5\ngini = 0.618\nsamples = 93\nvalue = [45, 32, 16]\nclass = Jacket", fillcolor="#f9e4d5"] ;
431 -> 432 ;
433 [label="gender <= 58.5\ngini = 0.592\nsamples = 13\nvalue = [4, 7, 2]\nclass = Shirt", fillcolor="#bdf6d5"] ;
432 -> 433 ;
434 [label="gender <= 56.5\ngini = 0.653\nsamples = 7\nvalue = [3, 2, 2]\nclass = Jacket", fillcolor="#fae6d7"] ;
433 -> 434 ;
435 [label="state <= 2.5\ngini = 0.444\nsamples = 3\nvalue = [1, 2, 0]\nclass = Shirt", fillcolor="#9cf2c0"] ;
434 -> 435 ;
436 [label="gini = 0.0\nsamples = 1\nvalue = [1, 0, 0]\nclass = Jacket", fillcolor="#e58139"] ;
435 -> 436 ;
437 [label="gini = 0.0\nsamples = 2\nvalue = [0, 2, 0]\nclass = Shirt", fillcolor="#39e581"] ;
435 -> 437 ;
438 [label="state <= 1.5\ngini = 0.5\nsamples = 4\nvalue = [2, 0, 2]\nclass = Jacket", fillcolor="#ffffff"] ;
434 -> 438 ;
439 [label="gini = 0.0\nsamples = 1\nvalue = [0, 0, 1]\nclass = Trousers", fillcolor="#8139e5"] ;
438 -> 439 ;
440 [label="gender <= 57.5\ngini = 0.444\nsamples = 3\nvalue = [2, 0, 1]\nclass = Jacket", fillcolor="#f2c09c"] ;
438 -> 440 ;
441 [label="gini = 0.0\nsamples = 1\nvalue = [1, 0, 0]\nclass = Jacket", fillcolor="#e58139"] ;
440 -> 441 ;
442 [label="gini = 0.5\nsamples = 2\nvalue = [1, 0, 1]\nclass = Jacket", fillcolor="#ffffff"] ;
440 -> 442 ;
443 [label="gender <= 63.5\ngini = 0.278\nsamples = 6\nvalue = [1, 5, 0]\nclass = Shirt", fillcolor="#61ea9a"] ;
433 -> 443 ;
444 [label="gini = 0.0\nsamples = 4\nvalue = [0, 4, 0]\nclass = Shirt", fillcolor="#39e581"] ;
443 -> 444 ;
445 [label="state <= 1.5\ngini = 0.5\nsamples = 2\nvalue = [1, 1, 0]\nclass = Jacket", fillcolor="#ffffff"] ;
443 -> 445 ;
446 [label="gini = 0.0\nsamples = 1\nvalue = [0, 1, 0]\nclass = Shirt", fillcolor="#39e581"] ;
445 -> 446 ;
447 [label="gini = 0.0\nsamples = 1\nvalue = [1, 0, 0]\nclass = Jacket", fillcolor="#e58139"] ;
445 -> 447 ;
448 [label="state <= 1.5\ngini = 0.609\nsamples = 80\nvalue = [41, 25, 14]\nclass = Jacket", fillcolor="#f7dac5"] ;
432 -> 448 ;
449 [label="gender <= 57.5\ngini = 0.555\nsamples = 40\nvalue = [24, 10, 6]\nclass = Jacket", fillcolor="#f3c4a3"] ;
448 -> 449 ;
450 [label="state <= 0.5\ngini = 0.526\nsamples = 17\nvalue = [10, 6, 1]\nclass = Jacket", fillcolor="#f6d1b7"] ;
449 -> 450 ;
451 [label="gender <= 53.5\ngini = 0.346\nsamples = 9\nvalue = [7, 2, 0]\nclass = Jacket", fillcolor="#eca572"] ;
450 -> 451 ;
452 [label="gini = 0.5\nsamples = 4\nvalue = [2, 2, 0]\nclass = Jacket", fillcolor="#ffffff"] ;
451 -> 452 ;
453 [label="gini = 0.0\nsamples = 5\nvalue = [5, 0, 0]\nclass = Jacket", fillcolor="#e58139"] ;
451 -> 453 ;
454 [label="gender <= 54.0\ngini = 0.594\nsamples = 8\nvalue = [3, 4, 1]\nclass = Shirt", fillcolor="#d7fae6"] ;
450 -> 454 ;
455 [label="gini = 0.667\nsamples = 3\nvalue = [1, 1, 1]\nclass = Jacket", fillcolor="#ffffff"] ;
454 -> 455 ;
456 [label="gender <= 55.5\ngini = 0.48\nsamples = 5\nvalue = [2, 3, 0]\nclass = Shirt", fillcolor="#bdf6d5"] ;
454 -> 456 ;
457 [label="gini = 0.0\nsamples = 1\nvalue = [0, 1, 0]\nclass = Shirt", fillcolor="#39e581"] ;
456 -> 457 ;
458 [label="gender <= 56.5\ngini = 0.5\nsamples = 4\nvalue = [2, 2, 0]\nclass = Jacket", fillcolor="#ffffff"] ;
456 -> 458 ;
459 [label="gini = 0.0\nsamples = 1\nvalue = [1, 0, 0]\nclass = Jacket", fillcolor="#e58139"] ;
458 -> 459 ;
460 [label="gini = 0.444\nsamples = 3\nvalue = [1, 2, 0]\nclass = Shirt", fillcolor="#9cf2c0"] ;
458 -> 460 ;
461 [label="gender <= 58.5\ngini = 0.552\nsamples = 23\nvalue = [14, 4, 5]\nclass = Jacket", fillcolor="#f2c09c"] ;
449 -> 461 ;
462 [label="gini = 0.0\nsamples = 1\nvalue = [0, 0, 1]\nclass = Trousers", fillcolor="#8139e5"] ;
461 -> 462 ;
463 [label="age <= 1.5\ngini = 0.529\nsamples = 22\nvalue = [14, 4, 4]\nclass = Jacket", fillcolor="#f1b991"] ;
461 -> 463 ;
464 [label="gender <= 63.5\ngini = 0.512\nsamples = 17\nvalue = [11, 2, 4]\nclass = Jacket", fillcolor="#f1bb94"] ;
463 -> 464 ;
465 [label="gender <= 62.0\ngini = 0.397\nsamples = 11\nvalue = [8, 0, 3]\nclass = Jacket", fillcolor="#efb083"] ;
464 -> 465 ;
466 [label="gender <= 60.5\ngini = 0.346\nsamples = 9\nvalue = [7, 0, 2]\nclass = Jacket", fillcolor="#eca572"] ;
465 -> 466 ;
467 [label="state <= 0.5\ngini = 0.444\nsamples = 6\nvalue = [4, 0, 2]\nclass = Jacket", fillcolor="#f2c09c"] ;
466 -> 467 ;
468 [label="gender <= 59.5\ngini = 0.375\nsamples = 4\nvalue = [3, 0, 1]\nclass = Jacket", fillcolor="#eeab7b"] ;
467 -> 468 ;
469 [label="gini = 0.444\nsamples = 3\nvalue = [2, 0, 1]\nclass = Jacket", fillcolor="#f2c09c"] ;
468 -> 469 ;
470 [label="gini = 0.0\nsamples = 1\nvalue = [1, 0, 0]\nclass = Jacket", fillcolor="#e58139"] ;
468 -> 470 ;
471 [label="gender <= 59.5\ngini = 0.5\nsamples = 2\nvalue = [1, 0, 1]\nclass = Jacket", fillcolor="#ffffff"] ;
467 -> 471 ;
472 [label="gini = 0.0\nsamples = 1\nvalue = [1, 0, 0]\nclass = Jacket", fillcolor="#e58139"] ;
471 -> 472 ;
473 [label="gini = 0.0\nsamples = 1\nvalue = [0, 0, 1]\nclass = Trousers", fillcolor="#8139e5"] ;
471 -> 473 ;
474 [label="gini = 0.0\nsamples = 3\nvalue = [3, 0, 0]\nclass = Jacket", fillcolor="#e58139"] ;
466 -> 474 ;
475 [label="gini = 0.5\nsamples = 2\nvalue = [1, 0, 1]\nclass = Jacket", fillcolor="#ffffff"] ;
465 -> 475 ;
476 [label="state <= 0.5\ngini = 0.611\nsamples = 6\nvalue = [3, 2, 1]\nclass = Jacket", fillcolor="#f8e0ce"] ;
464 -> 476 ;
477 [label="gini = 0.0\nsamples = 1\nvalue = [0, 1, 0]\nclass = Shirt", fillcolor="#39e581"] ;
476 -> 477 ;
478 [label="gini = 0.56\nsamples = 5\nvalue = [3, 1, 1]\nclass = Jacket", fillcolor="#f2c09c"] ;
476 -> 478 ;
479 [label="gender <= 60.5\ngini = 0.48\nsamples = 5\nvalue = [3, 2, 0]\nclass = Jacket", fillcolor="#f6d5bd"] ;
463 -> 479 ;
480 [label="gender <= 59.5\ngini = 0.444\nsamples = 3\nvalue = [1, 2, 0]\nclass = Shirt", fillcolor="#9cf2c0"] ;
479 -> 480 ;
481 [label="gini = 0.5\nsamples = 2\nvalue = [1, 1, 0]\nclass = Jacket", fillcolor="#ffffff"] ;
480 -> 481 ;
482 [label="gini = 0.0\nsamples = 1\nvalue = [0, 1, 0]\nclass = Shirt", fillcolor="#39e581"] ;
480 -> 482 ;
483 [label="gini = 0.0\nsamples = 2\nvalue = [2, 0, 0]\nclass = Jacket", fillcolor="#e58139"] ;
479 -> 483 ;
484 [label="gender <= 63.5\ngini = 0.639\nsamples = 40\nvalue = [17, 15, 8]\nclass = Jacket", fillcolor="#fdf5ef"] ;
448 -> 484 ;
485 [label="gender <= 54.0\ngini = 0.622\nsamples = 37\nvalue = [16, 15, 6]\nclass = Jacket", fillcolor="#fef9f6"] ;
484 -> 485 ;
486 [label="gini = 0.0\nsamples = 1\nvalue = [0, 0, 1]\nclass = Trousers", fillcolor="#8139e5"] ;
485 -> 486 ;
487 [label="gender <= 55.5\ngini = 0.61\nsamples = 36\nvalue = [16, 15, 5]\nclass = Jacket", fillcolor="#fef9f6"] ;
485 -> 487 ;
488 [label="gini = 0.0\nsamples = 2\nvalue = [2, 0, 0]\nclass = Jacket", fillcolor="#e58139"] ;
487 -> 488 ;
489 [label="gender <= 61.5\ngini = 0.614\nsamples = 34\nvalue = [14, 15, 5]\nclass = Shirt", fillcolor="#f5fef9"] ;
487 -> 489 ;
490 [label="state <= 2.5\ngini = 0.607\nsamples = 26\nvalue = [9, 13, 4]\nclass = Shirt", fillcolor="#d0f9e1"] ;
489 -> 490 ;
491 [label="gender <= 60.5\ngini = 0.529\nsamples = 11\nvalue = [2, 7, 2]\nclass = Shirt", fillcolor="#91f1b9"] ;
490 -> 491 ;
492 [label="gender <= 59.5\ngini = 0.593\nsamples = 9\nvalue = [2, 5, 2]\nclass = Shirt", fillcolor="#aaf4c9"] ;
491 -> 492 ;
493 [label="gender <= 57.5\ngini = 0.531\nsamples = 8\nvalue = [2, 5, 1]\nclass = Shirt", fillcolor="#9cf2c0"] ;
492 -> 493 ;
494 [label="age <= 1.5\ngini = 0.444\nsamples = 3\nvalue = [0, 2, 1]\nclass = Shirt", fillcolor="#9cf2c0"] ;
493 -> 494 ;
495 [label="gini = 0.5\nsamples = 2\nvalue = [0, 1, 1]\nclass = Shirt", fillcolor="#ffffff"] ;
494 -> 495 ;
496 [label="gini = 0.0\nsamples = 1\nvalue = [0, 1, 0]\nclass = Shirt", fillcolor="#39e581"] ;
494 -> 496 ;
497 [label="gender <= 58.5\ngini = 0.48\nsamples = 5\nvalue = [2, 3, 0]\nclass = Shirt", fillcolor="#bdf6d5"] ;
493 -> 497 ;
498 [label="gini = 0.444\nsamples = 3\nvalue = [1, 2, 0]\nclass = Shirt", fillcolor="#9cf2c0"] ;
497 -> 498 ;
499 [label="gini = 0.5\nsamples = 2\nvalue = [1, 1, 0]\nclass = Jacket", fillcolor="#ffffff"] ;
497 -> 499 ;
500 [label="gini = 0.0\nsamples = 1\nvalue = [0, 0, 1]\nclass = Trousers", fillcolor="#8139e5"] ;
492 -> 500 ;
501 [label="gini = 0.0\nsamples = 2\nvalue = [0, 2, 0]\nclass = Shirt", fillcolor="#39e581"] ;
491 -> 501 ;
502 [label="gender <= 59.5\ngini = 0.604\nsamples = 15\nvalue = [7, 6, 2]\nclass = Jacket", fillcolor="#fcf1e9"] ;
490 -> 502 ;
503 [label="gender <= 57.5\ngini = 0.62\nsamples = 10\nvalue = [5, 3, 2]\nclass = Jacket", fillcolor="#f8dbc6"] ;
502 -> 503 ;
504 [label="age <= 1.5\ngini = 0.48\nsamples = 5\nvalue = [3, 2, 0]\nclass = Jacket", fillcolor="#f6d5bd"] ;
503 -> 504 ;
505 [label="gender <= 56.5\ngini = 0.5\nsamples = 4\nvalue = [2, 2, 0]\nclass = Jacket", fillcolor="#ffffff"] ;
504 -> 505 ;
506 [label="gini = 0.5\nsamples = 2\nvalue = [1, 1, 0]\nclass = Jacket", fillcolor="#ffffff"] ;
505 -> 506 ;
507 [label="gini = 0.5\nsamples = 2\nvalue = [1, 1, 0]\nclass = Jacket", fillcolor="#ffffff"] ;
505 -> 507 ;
508 [label="gini = 0.0\nsamples = 1\nvalue = [1, 0, 0]\nclass = Jacket", fillcolor="#e58139"] ;
504 -> 508 ;
509 [label="age <= 1.5\ngini = 0.64\nsamples = 5\nvalue = [2, 1, 2]\nclass = Jacket", fillcolor="#ffffff"] ;
503 -> 509 ;
510 [label="gender <= 58.5\ngini = 0.5\nsamples = 4\nvalue = [2, 0, 2]\nclass = Jacket", fillcolor="#ffffff"] ;
509 -> 510 ;
511 [label="gini = 0.5\nsamples = 2\nvalue = [1, 0, 1]\nclass = Jacket", fillcolor="#ffffff"] ;
510 -> 511 ;
512 [label="gini = 0.5\nsamples = 2\nvalue = [1, 0, 1]\nclass = Jacket", fillcolor="#ffffff"] ;
510 -> 512 ;
513 [label="gini = 0.0\nsamples = 1\nvalue = [0, 1, 0]\nclass = Shirt", fillcolor="#39e581"] ;
509 -> 513 ;
514 [label="gender <= 60.5\ngini = 0.48\nsamples = 5\nvalue = [2, 3, 0]\nclass = Shirt", fillcolor="#bdf6d5"] ;
502 -> 514 ;
515 [label="gini = 0.5\nsamples = 2\nvalue = [1, 1, 0]\nclass = Jacket", fillcolor="#ffffff"] ;
514 -> 515 ;
516 [label="gini = 0.444\nsamples = 3\nvalue = [1, 2, 0]\nclass = Shirt", fillcolor="#9cf2c0"] ;
514 -> 516 ;
517 [label="state <= 2.5\ngini = 0.531\nsamples = 8\nvalue = [5, 2, 1]\nclass = Jacket", fillcolor="#f2c09c"] ;
489 -> 517 ;
518 [label="gender <= 62.5\ngini = 0.444\nsamples = 3\nvalue = [2, 0, 1]\nclass = Jacket", fillcolor="#f2c09c"] ;
517 -> 518 ;
519 [label="gini = 0.0\nsamples = 2\nvalue = [2, 0, 0]\nclass = Jacket", fillcolor="#e58139"] ;
518 -> 519 ;
520 [label="gini = 0.0\nsamples = 1\nvalue = [0, 0, 1]\nclass = Trousers", fillcolor="#8139e5"] ;
518 -> 520 ;
521 [label="gender <= 62.5\ngini = 0.48\nsamples = 5\nvalue = [3, 2, 0]\nclass = Jacket", fillcolor="#f6d5bd"] ;
517 -> 521 ;
522 [label="gini = 0.5\nsamples = 2\nvalue = [1, 1, 0]\nclass = Jacket", fillcolor="#ffffff"] ;
521 -> 522 ;
523 [label="gini = 0.444\nsamples = 3\nvalue = [2, 1, 0]\nclass = Jacket", fillcolor="#f2c09c"] ;
521 -> 523 ;
524 [label="state <= 2.5\ngini = 0.444\nsamples = 3\nvalue = [1, 0, 2]\nclass = Trousers", fillcolor="#c09cf2"] ;
484 -> 524 ;
525 [label="gini = 0.0\nsamples = 1\nvalue = [0, 0, 1]\nclass = Trousers", fillcolor="#8139e5"] ;
524 -> 525 ;
526 [label="gini = 0.5\nsamples = 2\nvalue = [1, 0, 1]\nclass = Jacket", fillcolor="#ffffff"] ;
524 -> 526 ;
527 [label="state <= 2.5\ngini = 0.606\nsamples = 29\nvalue = [9, 15, 5]\nclass = Shirt", fillcolor="#c4f7d9"] ;
431 -> 527 ;
528 [label="gender <= 65.5\ngini = 0.655\nsamples = 20\nvalue = [7, 8, 5]\nclass = Shirt", fillcolor="#f0fdf5"] ;
527 -> 528 ;
529 [label="state <= 0.5\ngini = 0.375\nsamples = 4\nvalue = [1, 3, 0]\nclass = Shirt", fillcolor="#7beeab"] ;
528 -> 529 ;
530 [label="gini = 0.444\nsamples = 3\nvalue = [1, 2, 0]\nclass = Shirt", fillcolor="#9cf2c0"] ;
529 -> 530 ;
531 [label="gini = 0.0\nsamples = 1\nvalue = [0, 1, 0]\nclass = Shirt", fillcolor="#39e581"] ;
529 -> 531 ;
532 [label="state <= 0.5\ngini = 0.664\nsamples = 16\nvalue = [6, 5, 5]\nclass = Jacket", fillcolor="#fdf4ed"] ;
528 -> 532 ;
533 [label="gender <= 67.5\ngini = 0.625\nsamples = 4\nvalue = [1, 1, 2]\nclass = Trousers", fillcolor="#d5bdf6"] ;
532 -> 533 ;
534 [label="gender <= 66.5\ngini = 0.5\nsamples = 2\nvalue = [1, 1, 0]\nclass = Jacket", fillcolor="#ffffff"] ;
533 -> 534 ;
535 [label="gini = 0.0\nsamples = 1\nvalue = [1, 0, 0]\nclass = Jacket", fillcolor="#e58139"] ;
534 -> 535 ;
536 [label="gini = 0.0\nsamples = 1\nvalue = [0, 1, 0]\nclass = Shirt", fillcolor="#39e581"] ;
534 -> 536 ;
537 [label="gini = 0.0\nsamples = 2\nvalue = [0, 0, 2]\nclass = Trousers", fillcolor="#8139e5"] ;
533 -> 537 ;
538 [label="gender <= 67.5\ngini = 0.653\nsamples = 12\nvalue = [5, 4, 3]\nclass = Jacket", fillcolor="#fcefe6"] ;
532 -> 538 ;
539 [label="state <= 1.5\ngini = 0.64\nsamples = 5\nvalue = [2, 1, 2]\nclass = Jacket", fillcolor="#ffffff"] ;
538 -> 539 ;
540 [label="gini = 0.0\nsamples = 1\nvalue = [0, 0, 1]\nclass = Trousers", fillcolor="#8139e5"] ;
539 -> 540 ;
541 [label="gender <= 66.5\ngini = 0.625\nsamples = 4\nvalue = [2, 1, 1]\nclass = Jacket", fillcolor="#f6d5bd"] ;
539 -> 541 ;
542 [label="gini = 0.667\nsamples = 3\nvalue = [1, 1, 1]\nclass = Jacket", fillcolor="#ffffff"] ;
541 -> 542 ;
543 [label="gini = 0.0\nsamples = 1\nvalue = [1, 0, 0]\nclass = Jacket", fillcolor="#e58139"] ;
541 -> 543 ;
544 [label="state <= 1.5\ngini = 0.612\nsamples = 7\nvalue = [3, 3, 1]\nclass = Jacket", fillcolor="#ffffff"] ;
538 -> 544 ;
545 [label="gini = 0.444\nsamples = 3\nvalue = [2, 1, 0]\nclass = Jacket", fillcolor="#f2c09c"] ;
544 -> 545 ;
546 [label="gini = 0.625\nsamples = 4\nvalue = [1, 2, 1]\nclass = Shirt", fillcolor="#bdf6d5"] ;
544 -> 546 ;
547 [label="age <= 1.5\ngini = 0.346\nsamples = 9\nvalue = [2, 7, 0]\nclass = Shirt", fillcolor="#72eca5"] ;
527 -> 547 ;
548 [label="gender <= 67.5\ngini = 0.245\nsamples = 7\nvalue = [1, 6, 0]\nclass = Shirt", fillcolor="#5ae996"] ;
547 -> 548 ;
549 [label="age <= 0.5\ngini = 0.32\nsamples = 5\nvalue = [1, 4, 0]\nclass = Shirt", fillcolor="#6aeca0"] ;
548 -> 549 ;
550 [label="gini = 0.0\nsamples = 1\nvalue = [0, 1, 0]\nclass = Shirt", fillcolor="#39e581"] ;
549 -> 550 ;
551 [label="gender <= 66.5\ngini = 0.375\nsamples = 4\nvalue = [1, 3, 0]\nclass = Shirt", fillcolor="#7beeab"] ;
549 -> 551 ;
552 [label="gini = 0.0\nsamples = 1\nvalue = [0, 1, 0]\nclass = Shirt", fillcolor="#39e581"] ;
551 -> 552 ;
553 [label="gini = 0.444\nsamples = 3\nvalue = [1, 2, 0]\nclass = Shirt", fillcolor="#9cf2c0"] ;
551 -> 553 ;
554 [label="gini = 0.0\nsamples = 2\nvalue = [0, 2, 0]\nclass = Shirt", fillcolor="#39e581"] ;
548 -> 554 ;
555 [label="gender <= 67.0\ngini = 0.5\nsamples = 2\nvalue = [1, 1, 0]\nclass = Jacket", fillcolor="#ffffff"] ;
547 -> 555 ;
556 [label="gini = 0.0\nsamples = 1\nvalue = [0, 1, 0]\nclass = Shirt", fillcolor="#39e581"] ;
555 -> 556 ;
557 [label="gini = 0.0\nsamples = 1\nvalue = [1, 0, 0]\nclass = Jacket", fillcolor="#e58139"] ;
555 -> 557 ;
558 [label="gender <= 65.5\ngini = 0.556\nsamples = 39\nvalue = [23, 11, 5]\nclass = Jacket", fillcolor="#f4c9aa"] ;
430 -> 558 ;
559 [label="gender <= 53.5\ngini = 0.584\nsamples = 32\nvalue = [17, 11, 4]\nclass = Jacket", fillcolor="#f8dbc6"] ;
558 -> 559 ;
560 [label="gini = 0.0\nsamples = 2\nvalue = [2, 0, 0]\nclass = Jacket", fillcolor="#e58139"] ;
559 -> 560 ;
561 [label="gender <= 55.5\ngini = 0.598\nsamples = 30\nvalue = [15, 11, 4]\nclass = Jacket", fillcolor="#fae4d5"] ;
559 -> 561 ;
562 [label="age <= 1.5\ngini = 0.64\nsamples = 5\nvalue = [1, 2, 2]\nclass = Shirt", fillcolor="#ffffff"] ;
561 -> 562 ;
563 [label="gender <= 54.5\ngini = 0.625\nsamples = 4\nvalue = [1, 2, 1]\nclass = Shirt", fillcolor="#bdf6d5"] ;
562 -> 563 ;
564 [label="gini = 0.5\nsamples = 2\nvalue = [0, 1, 1]\nclass = Shirt", fillcolor="#ffffff"] ;
563 -> 564 ;
565 [label="gini = 0.5\nsamples = 2\nvalue = [1, 1, 0]\nclass = Jacket", fillcolor="#ffffff"] ;
563 -> 565 ;
566 [label="gini = 0.0\nsamples = 1\nvalue = [0, 0, 1]\nclass = Trousers", fillcolor="#8139e5"] ;
562 -> 566 ;
567 [label="gender <= 64.5\ngini = 0.55\nsamples = 25\nvalue = [14, 9, 2]\nclass = Jacket", fillcolor="#f7d8c1"] ;
561 -> 567 ;
568 [label="gender <= 62.5\ngini = 0.542\nsamples = 24\nvalue = [14, 8, 2]\nclass = Jacket", fillcolor="#f5d0b5"] ;
567 -> 568 ;
569 [label="gender <= 56.5\ngini = 0.517\nsamples = 22\nvalue = [13, 8, 1]\nclass = Jacket", fillcolor="#f6d2b8"] ;
568 -> 569 ;
570 [label="gini = 0.0\nsamples = 1\nvalue = [1, 0, 0]\nclass = Jacket", fillcolor="#e58139"] ;
569 -> 570 ;
571 [label="age <= 0.5\ngini = 0.526\nsamples = 21\nvalue = [12, 8, 1]\nclass = Jacket", fillcolor="#f7d8c2"] ;
569 -> 571 ;
572 [label="gender <= 59.5\ngini = 0.667\nsamples = 3\nvalue = [1, 1, 1]\nclass = Jacket", fillcolor="#ffffff"] ;
571 -> 572 ;
573 [label="gini = 0.0\nsamples = 1\nvalue = [0, 0, 1]\nclass = Trousers", fillcolor="#8139e5"] ;
572 -> 573 ;
574 [label="gini = 0.5\nsamples = 2\nvalue = [1, 1, 0]\nclass = Jacket", fillcolor="#ffffff"] ;
572 -> 574 ;
575 [label="gender <= 61.5\ngini = 0.475\nsamples = 18\nvalue = [11, 7, 0]\nclass = Jacket", fillcolor="#f6d1b7"] ;
571 -> 575 ;
576 [label="gender <= 59.5\ngini = 0.49\nsamples = 14\nvalue = [8, 6, 0]\nclass = Jacket", fillcolor="#f8e0ce"] ;
575 -> 576 ;
577 [label="gender <= 58.5\ngini = 0.444\nsamples = 9\nvalue = [6, 3, 0]\nclass = Jacket", fillcolor="#f2c09c"] ;
576 -> 577 ;
578 [label="gender <= 57.5\ngini = 0.5\nsamples = 4\nvalue = [2, 2, 0]\nclass = Jacket", fillcolor="#ffffff"] ;
577 -> 578 ;
579 [label="age <= 1.5\ngini = 0.5\nsamples = 2\nvalue = [1, 1, 0]\nclass = Jacket", fillcolor="#ffffff"] ;
578 -> 579 ;
580 [label="gini = 0.0\nsamples = 1\nvalue = [0, 1, 0]\nclass = Shirt", fillcolor="#39e581"] ;
579 -> 580 ;
581 [label="gini = 0.0\nsamples = 1\nvalue = [1, 0, 0]\nclass = Jacket", fillcolor="#e58139"] ;
579 -> 581 ;
582 [label="age <= 1.5\ngini = 0.5\nsamples = 2\nvalue = [1, 1, 0]\nclass = Jacket", fillcolor="#ffffff"] ;
578 -> 582 ;
583 [label="gini = 0.0\nsamples = 1\nvalue = [1, 0, 0]\nclass = Jacket", fillcolor="#e58139"] ;
582 -> 583 ;
584 [label="gini = 0.0\nsamples = 1\nvalue = [0, 1, 0]\nclass = Shirt", fillcolor="#39e581"] ;
582 -> 584 ;
585 [label="age <= 1.5\ngini = 0.32\nsamples = 5\nvalue = [4, 1, 0]\nclass = Jacket", fillcolor="#eca06a"] ;
577 -> 585 ;
586 [label="gini = 0.375\nsamples = 4\nvalue = [3, 1, 0]\nclass = Jacket", fillcolor="#eeab7b"] ;
585 -> 586 ;
587 [label="gini = 0.0\nsamples = 1\nvalue = [1, 0, 0]\nclass = Jacket", fillcolor="#e58139"] ;
585 -> 587 ;
588 [label="age <= 1.5\ngini = 0.48\nsamples = 5\nvalue = [2, 3, 0]\nclass = Shirt", fillcolor="#bdf6d5"] ;
576 -> 588 ;
589 [label="gender <= 60.5\ngini = 0.444\nsamples = 3\nvalue = [1, 2, 0]\nclass = Shirt", fillcolor="#9cf2c0"] ;
588 -> 589 ;
590 [label="gini = 0.0\nsamples = 1\nvalue = [0, 1, 0]\nclass = Shirt", fillcolor="#39e581"] ;
589 -> 590 ;
591 [label="gini = 0.5\nsamples = 2\nvalue = [1, 1, 0]\nclass = Jacket", fillcolor="#ffffff"] ;
589 -> 591 ;
592 [label="gender <= 60.5\ngini = 0.5\nsamples = 2\nvalue = [1, 1, 0]\nclass = Jacket", fillcolor="#ffffff"] ;
588 -> 592 ;
593 [label="gini = 0.0\nsamples = 1\nvalue = [1, 0, 0]\nclass = Jacket", fillcolor="#e58139"] ;
592 -> 593 ;
594 [label="gini = 0.0\nsamples = 1\nvalue = [0, 1, 0]\nclass = Shirt", fillcolor="#39e581"] ;
592 -> 594 ;
595 [label="age <= 1.5\ngini = 0.375\nsamples = 4\nvalue = [3, 1, 0]\nclass = Jacket", fillcolor="#eeab7b"] ;
575 -> 595 ;
596 [label="gini = 0.444\nsamples = 3\nvalue = [2, 1, 0]\nclass = Jacket", fillcolor="#f2c09c"] ;
595 -> 596 ;
597 [label="gini = 0.0\nsamples = 1\nvalue = [1, 0, 0]\nclass = Jacket", fillcolor="#e58139"] ;
595 -> 597 ;
598 [label="gender <= 63.5\ngini = 0.5\nsamples = 2\nvalue = [1, 0, 1]\nclass = Jacket", fillcolor="#ffffff"] ;
568 -> 598 ;
599 [label="gini = 0.0\nsamples = 1\nvalue = [0, 0, 1]\nclass = Trousers", fillcolor="#8139e5"] ;
598 -> 599 ;
600 [label="gini = 0.0\nsamples = 1\nvalue = [1, 0, 0]\nclass = Jacket", fillcolor="#e58139"] ;
598 -> 600 ;
601 [label="gini = 0.0\nsamples = 1\nvalue = [0, 1, 0]\nclass = Shirt", fillcolor="#39e581"] ;
567 -> 601 ;
602 [label="age <= 0.5\ngini = 0.245\nsamples = 7\nvalue = [6, 0, 1]\nclass = Jacket", fillcolor="#e9965a"] ;
558 -> 602 ;
603 [label="gini = 0.0\nsamples = 2\nvalue = [2, 0, 0]\nclass = Jacket", fillcolor="#e58139"] ;
602 -> 603 ;
604 [label="gender <= 66.5\ngini = 0.32\nsamples = 5\nvalue = [4, 0, 1]\nclass = Jacket", fillcolor="#eca06a"] ;
602 -> 604 ;
605 [label="gini = 0.0\nsamples = 1\nvalue = [1, 0, 0]\nclass = Jacket", fillcolor="#e58139"] ;
604 -> 605 ;
606 [label="gini = 0.375\nsamples = 4\nvalue = [3, 0, 1]\nclass = Jacket", fillcolor="#eeab7b"] ;
604 -> 606 ;
607 [label="gender <= 61.5\ngini = 0.632\nsamples = 53\nvalue = [17, 25, 11]\nclass = Shirt", fillcolor="#d3f9e3"] ;
429 -> 607 ;
608 [label="gender <= 60.0\ngini = 0.662\nsamples = 32\nvalue = [11, 12, 9]\nclass = Shirt", fillcolor="#f6fef9"] ;
607 -> 608 ;
609 [label="gender <= 53.5\ngini = 0.642\nsamples = 27\nvalue = [9, 12, 6]\nclass = Shirt", fillcolor="#defbea"] ;
608 -> 609 ;
610 [label="state <= 5.5\ngini = 0.611\nsamples = 6\nvalue = [2, 1, 3]\nclass = Trousers", fillcolor="#e0cef8"] ;
609 -> 610 ;
611 [label="age <= 0.5\ngini = 0.625\nsamples = 4\nvalue = [2, 1, 1]\nclass = Jacket", fillcolor="#f6d5bd"] ;
610 -> 611 ;
612 [label="gini = 0.0\nsamples = 1\nvalue = [0, 0, 1]\nclass = Trousers", fillcolor="#8139e5"] ;
611 -> 612 ;
613 [label="age <= 1.5\ngini = 0.444\nsamples = 3\nvalue = [2, 1, 0]\nclass = Jacket", fillcolor="#f2c09c"] ;
611 -> 613 ;
614 [label="gini = 0.5\nsamples = 2\nvalue = [1, 1, 0]\nclass = Jacket", fillcolor="#ffffff"] ;
613 -> 614 ;
615 [label="gini = 0.0\nsamples = 1\nvalue = [1, 0, 0]\nclass = Jacket", fillcolor="#e58139"] ;
613 -> 615 ;
616 [label="gini = 0.0\nsamples = 2\nvalue = [0, 0, 2]\nclass = Trousers", fillcolor="#8139e5"] ;
610 -> 616 ;
617 [label="age <= 1.5\ngini = 0.594\nsamples = 21\nvalue = [7, 11, 3]\nclass = Shirt", fillcolor="#c6f8db"] ;
609 -> 617 ;
618 [label="state <= 5.5\ngini = 0.605\nsamples = 20\nvalue = [7, 10, 3]\nclass = Shirt", fillcolor="#d1f9e2"] ;
617 -> 618 ;
619 [label="gender <= 55.5\ngini = 0.579\nsamples = 11\nvalue = [5, 5, 1]\nclass = Jacket", fillcolor="#ffffff"] ;
618 -> 619 ;
620 [label="gender <= 54.5\ngini = 0.444\nsamples = 6\nvalue = [2, 4, 0]\nclass = Shirt", fillcolor="#9cf2c0"] ;
619 -> 620 ;
621 [label="gini = 0.444\nsamples = 3\nvalue = [1, 2, 0]\nclass = Shirt", fillcolor="#9cf2c0"] ;
620 -> 621 ;
622 [label="gini = 0.444\nsamples = 3\nvalue = [1, 2, 0]\nclass = Shirt", fillcolor="#9cf2c0"] ;
620 -> 622 ;
623 [label="gender <= 58.0\ngini = 0.56\nsamples = 5\nvalue = [3, 1, 1]\nclass = Jacket", fillcolor="#f2c09c"] ;
619 -> 623 ;
624 [label="gender <= 56.5\ngini = 0.444\nsamples = 3\nvalue = [2, 0, 1]\nclass = Jacket", fillcolor="#f2c09c"] ;
623 -> 624 ;
625 [label="gini = 0.0\nsamples = 1\nvalue = [1, 0, 0]\nclass = Jacket", fillcolor="#e58139"] ;
624 -> 625 ;
626 [label="gini = 0.5\nsamples = 2\nvalue = [1, 0, 1]\nclass = Jacket", fillcolor="#ffffff"] ;
624 -> 626 ;
627 [label="gini = 0.5\nsamples = 2\nvalue = [1, 1, 0]\nclass = Jacket", fillcolor="#ffffff"] ;
623 -> 627 ;
628 [label="gender <= 55.5\ngini = 0.593\nsamples = 9\nvalue = [2, 5, 2]\nclass = Shirt", fillcolor="#aaf4c9"] ;
618 -> 628 ;
629 [label="gender <= 54.5\ngini = 0.444\nsamples = 3\nvalue = [2, 0, 1]\nclass = Jacket", fillcolor="#f2c09c"] ;
628 -> 629 ;
630 [label="gini = 0.0\nsamples = 1\nvalue = [0, 0, 1]\nclass = Trousers", fillcolor="#8139e5"] ;
629 -> 630 ;
631 [label="gini = 0.0\nsamples = 2\nvalue = [2, 0, 0]\nclass = Jacket", fillcolor="#e58139"] ;
629 -> 631 ;
632 [label="gender <= 58.0\ngini = 0.278\nsamples = 6\nvalue = [0, 5, 1]\nclass = Shirt", fillcolor="#61ea9a"] ;
628 -> 632 ;
633 [label="gini = 0.0\nsamples = 4\nvalue = [0, 4, 0]\nclass = Shirt", fillcolor="#39e581"] ;
632 -> 633 ;
634 [label="gini = 0.5\nsamples = 2\nvalue = [0, 1, 1]\nclass = Shirt", fillcolor="#ffffff"] ;
632 -> 634 ;
635 [label="gini = 0.0\nsamples = 1\nvalue = [0, 1, 0]\nclass = Shirt", fillcolor="#39e581"] ;
617 -> 635 ;
636 [label="age <= 0.5\ngini = 0.48\nsamples = 5\nvalue = [2, 0, 3]\nclass = Trousers", fillcolor="#d5bdf6"] ;
608 -> 636 ;
637 [label="gini = 0.0\nsamples = 1\nvalue = [1, 0, 0]\nclass = Jacket", fillcolor="#e58139"] ;
636 -> 637 ;
638 [label="age <= 1.5\ngini = 0.375\nsamples = 4\nvalue = [1, 0, 3]\nclass = Trousers", fillcolor="#ab7bee"] ;
636 -> 638 ;
639 [label="gini = 0.0\nsamples = 1\nvalue = [0, 0, 1]\nclass = Trousers", fillcolor="#8139e5"] ;
638 -> 639 ;
640 [label="gini = 0.444\nsamples = 3\nvalue = [1, 0, 2]\nclass = Trousers", fillcolor="#c09cf2"] ;
638 -> 640 ;
641 [label="age <= 0.5\ngini = 0.526\nsamples = 21\nvalue = [6, 13, 2]\nclass = Shirt", fillcolor="#a3f3c4"] ;
607 -> 641 ;
642 [label="gini = 0.0\nsamples = 1\nvalue = [0, 0, 1]\nclass = Trousers", fillcolor="#8139e5"] ;
641 -> 642 ;
643 [label="state <= 5.5\ngini = 0.485\nsamples = 20\nvalue = [6, 13, 1]\nclass = Shirt", fillcolor="#9cf2c0"] ;
641 -> 643 ;
644 [label="gender <= 64.0\ngini = 0.43\nsamples = 11\nvalue = [2, 8, 1]\nclass = Shirt", fillcolor="#7beeab"] ;
643 -> 644 ;
645 [label="gini = 0.444\nsamples = 6\nvalue = [2, 4, 0]\nclass = Shirt", fillcolor="#9cf2c0"] ;
644 -> 645 ;
646 [label="gender <= 66.0\ngini = 0.32\nsamples = 5\nvalue = [0, 4, 1]\nclass = Shirt", fillcolor="#6aeca0"] ;
644 -> 646 ;
647 [label="gini = 0.444\nsamples = 3\nvalue = [0, 2, 1]\nclass = Shirt", fillcolor="#9cf2c0"] ;
646 -> 647 ;
648 [label="gini = 0.0\nsamples = 2\nvalue = [0, 2, 0]\nclass = Shirt", fillcolor="#39e581"] ;
646 -> 648 ;
649 [label="gender <= 62.5\ngini = 0.494\nsamples = 9\nvalue = [4, 5, 0]\nclass = Shirt", fillcolor="#d7fae6"] ;
643 -> 649 ;
650 [label="gini = 0.0\nsamples = 1\nvalue = [0, 1, 0]\nclass = Shirt", fillcolor="#39e581"] ;
649 -> 650 ;
651 [label="gender <= 63.5\ngini = 0.5\nsamples = 8\nvalue = [4, 4, 0]\nclass = Jacket", fillcolor="#ffffff"] ;
649 -> 651 ;
652 [label="gini = 0.0\nsamples = 1\nvalue = [1, 0, 0]\nclass = Jacket", fillcolor="#e58139"] ;
651 -> 652 ;
653 [label="gender <= 64.5\ngini = 0.49\nsamples = 7\nvalue = [3, 4, 0]\nclass = Shirt", fillcolor="#cef8e0"] ;
651 -> 653 ;
654 [label="gini = 0.444\nsamples = 3\nvalue = [1, 2, 0]\nclass = Shirt", fillcolor="#9cf2c0"] ;
653 -> 654 ;
655 [label="gender <= 66.0\ngini = 0.5\nsamples = 4\nvalue = [2, 2, 0]\nclass = Jacket", fillcolor="#ffffff"] ;
653 -> 655 ;
656 [label="gini = 0.0\nsamples = 1\nvalue = [1, 0, 0]\nclass = Jacket", fillcolor="#e58139"] ;
655 -> 656 ;
657 [label="gender <= 67.5\ngini = 0.444\nsamples = 3\nvalue = [1, 2, 0]\nclass = Shirt", fillcolor="#9cf2c0"] ;
655 -> 657 ;
658 [label="gini = 0.0\nsamples = 1\nvalue = [0, 1, 0]\nclass = Shirt", fillcolor="#39e581"] ;
657 -> 658 ;
659 [label="gini = 0.5\nsamples = 2\nvalue = [1, 1, 0]\nclass = Jacket", fillcolor="#ffffff"] ;
657 -> 659 ;
660 [label="state <= 1.5\ngini = 0.666\nsamples = 55\nvalue = [17, 19, 19]\nclass = Shirt", fillcolor="#ffffff"] ;
428 -> 660 ;
661 [label="age <= 0.5\ngini = 0.649\nsamples = 22\nvalue = [9, 8, 5]\nclass = Jacket", fillcolor="#fdf6f1"] ;
660 -> 661 ;
662 [label="gini = 0.0\nsamples = 2\nvalue = [2, 0, 0]\nclass = Jacket", fillcolor="#e58139"] ;
661 -> 662 ;
663 [label="gender <= 70.5\ngini = 0.655\nsamples = 20\nvalue = [7, 8, 5]\nclass = Shirt", fillcolor="#f0fdf5"] ;
661 -> 663 ;
664 [label="gender <= 69.5\ngini = 0.625\nsamples = 8\nvalue = [2, 2, 4]\nclass = Trousers", fillcolor="#d5bdf6"] ;
663 -> 664 ;
665 [label="state <= 0.5\ngini = 0.56\nsamples = 5\nvalue = [1, 1, 3]\nclass = Trousers", fillcolor="#c09cf2"] ;
664 -> 665 ;
666 [label="gini = 0.444\nsamples = 3\nvalue = [1, 0, 2]\nclass = Trousers", fillcolor="#c09cf2"] ;
665 -> 666 ;
667 [label="gini = 0.5\nsamples = 2\nvalue = [0, 1, 1]\nclass = Shirt", fillcolor="#ffffff"] ;
665 -> 667 ;
668 [label="state <= 0.5\ngini = 0.667\nsamples = 3\nvalue = [1, 1, 1]\nclass = Jacket", fillcolor="#ffffff"] ;
664 -> 668 ;
669 [label="gini = 0.0\nsamples = 1\nvalue = [0, 1, 0]\nclass = Shirt", fillcolor="#39e581"] ;
668 -> 669 ;
670 [label="gini = 0.5\nsamples = 2\nvalue = [1, 0, 1]\nclass = Jacket", fillcolor="#ffffff"] ;
668 -> 670 ;
671 [label="gender <= 73.5\ngini = 0.569\nsamples = 12\nvalue = [5, 6, 1]\nclass = Shirt", fillcolor="#e3fbed"] ;
663 -> 671 ;
672 [label="gender <= 72.5\ngini = 0.562\nsamples = 11\nvalue = [4, 6, 1]\nclass = Shirt", fillcolor="#c6f8db"] ;
671 -> 672 ;
673 [label="gender <= 71.5\ngini = 0.594\nsamples = 8\nvalue = [4, 3, 1]\nclass = Jacket", fillcolor="#fae6d7"] ;
672 -> 673 ;
674 [label="age <= 1.5\ngini = 0.48\nsamples = 5\nvalue = [2, 3, 0]\nclass = Shirt", fillcolor="#bdf6d5"] ;
673 -> 674 ;
675 [label="gini = 0.5\nsamples = 4\nvalue = [2, 2, 0]\nclass = Jacket", fillcolor="#ffffff"] ;
674 -> 675 ;
676 [label="gini = 0.0\nsamples = 1\nvalue = [0, 1, 0]\nclass = Shirt", fillcolor="#39e581"] ;
674 -> 676 ;
677 [label="state <= 0.5\ngini = 0.444\nsamples = 3\nvalue = [2, 0, 1]\nclass = Jacket", fillcolor="#f2c09c"] ;
673 -> 677 ;
678 [label="gini = 0.5\nsamples = 2\nvalue = [1, 0, 1]\nclass = Jacket", fillcolor="#ffffff"] ;
677 -> 678 ;
679 [label="gini = 0.0\nsamples = 1\nvalue = [1, 0, 0]\nclass = Jacket", fillcolor="#e58139"] ;
677 -> 679 ;
680 [label="gini = 0.0\nsamples = 3\nvalue = [0, 3, 0]\nclass = Shirt", fillcolor="#39e581"] ;
672 -> 680 ;
681 [label="gini = 0.0\nsamples = 1\nvalue = [1, 0, 0]\nclass = Jacket", fillcolor="#e58139"] ;
671 -> 681 ;
682 [label="state <= 2.5\ngini = 0.65\nsamples = 33\nvalue = [8, 11, 14]\nclass = Trousers", fillcolor="#eee4fb"] ;
660 -> 682 ;
683 [label="gender <= 72.0\ngini = 0.568\nsamples = 9\nvalue = [3, 1, 5]\nclass = Trousers", fillcolor="#d5bdf6"] ;
682 -> 683 ;
684 [label="age <= 1.5\ngini = 0.49\nsamples = 7\nvalue = [3, 0, 4]\nclass = Trousers", fillcolor="#e0cef8"] ;
683 -> 684 ;
685 [label="gender <= 70.0\ngini = 0.5\nsamples = 6\nvalue = [3, 0, 3]\nclass = Jacket", fillcolor="#ffffff"] ;
684 -> 685 ;
686 [label="gini = 0.5\nsamples = 2\nvalue = [1, 0, 1]\nclass = Jacket", fillcolor="#ffffff"] ;
685 -> 686 ;
687 [label="gini = 0.5\nsamples = 4\nvalue = [2, 0, 2]\nclass = Jacket", fillcolor="#ffffff"] ;
685 -> 687 ;
688 [label="gini = 0.0\nsamples = 1\nvalue = [0, 0, 1]\nclass = Trousers", fillcolor="#8139e5"] ;
684 -> 688 ;
689 [label="gender <= 73.5\ngini = 0.5\nsamples = 2\nvalue = [0, 1, 1]\nclass = Shirt", fillcolor="#ffffff"] ;
683 -> 689 ;
690 [label="gini = 0.0\nsamples = 1\nvalue = [0, 1, 0]\nclass = Shirt", fillcolor="#39e581"] ;
689 -> 690 ;
691 [label="gini = 0.0\nsamples = 1\nvalue = [0, 0, 1]\nclass = Trousers", fillcolor="#8139e5"] ;
689 -> 691 ;
692 [label="state <= 3.5\ngini = 0.642\nsamples = 24\nvalue = [5, 10, 9]\nclass = Shirt", fillcolor="#f2fdf7"] ;
682 -> 692 ;
693 [label="gender <= 72.5\ngini = 0.32\nsamples = 5\nvalue = [1, 4, 0]\nclass = Shirt", fillcolor="#6aeca0"] ;
692 -> 693 ;
694 [label="gini = 0.0\nsamples = 3\nvalue = [0, 3, 0]\nclass = Shirt", fillcolor="#39e581"] ;
693 -> 694 ;
695 [label="gini = 0.5\nsamples = 2\nvalue = [1, 1, 0]\nclass = Jacket", fillcolor="#ffffff"] ;
693 -> 695 ;
696 [label="state <= 4.5\ngini = 0.632\nsamples = 19\nvalue = [4, 6, 9]\nclass = Trousers", fillcolor="#e2d1f9"] ;
692 -> 696 ;
697 [label="age <= 1.5\ngini = 0.449\nsamples = 7\nvalue = [1, 1, 5]\nclass = Trousers", fillcolor="#ab7bee"] ;
696 -> 697 ;
698 [label="gender <= 71.5\ngini = 0.278\nsamples = 6\nvalue = [1, 0, 5]\nclass = Trousers", fillcolor="#9a61ea"] ;
697 -> 698 ;
699 [label="gini = 0.0\nsamples = 3\nvalue = [0, 0, 3]\nclass = Trousers", fillcolor="#8139e5"] ;
698 -> 699 ;
700 [label="gender <= 73.0\ngini = 0.444\nsamples = 3\nvalue = [1, 0, 2]\nclass = Trousers", fillcolor="#c09cf2"] ;
698 -> 700 ;
701 [label="gini = 0.0\nsamples = 1\nvalue = [1, 0, 0]\nclass = Jacket", fillcolor="#e58139"] ;
700 -> 701 ;
702 [label="gini = 0.0\nsamples = 2\nvalue = [0, 0, 2]\nclass = Trousers", fillcolor="#8139e5"] ;
700 -> 702 ;
703 [label="gini = 0.0\nsamples = 1\nvalue = [0, 1, 0]\nclass = Shirt", fillcolor="#39e581"] ;
697 -> 703 ;
704 [label="state <= 5.5\ngini = 0.653\nsamples = 12\nvalue = [3, 5, 4]\nclass = Shirt", fillcolor="#e6fcef"] ;
696 -> 704 ;
705 [label="gender <= 70.5\ngini = 0.5\nsamples = 6\nvalue = [1, 4, 1]\nclass = Shirt", fillcolor="#88efb3"] ;
704 -> 705 ;
706 [label="gini = 0.667\nsamples = 3\nvalue = [1, 1, 1]\nclass = Jacket", fillcolor="#ffffff"] ;
705 -> 706 ;
707 [label="gini = 0.0\nsamples = 3\nvalue = [0, 3, 0]\nclass = Shirt", fillcolor="#39e581"] ;
705 -> 707 ;
708 [label="gender <= 72.5\ngini = 0.611\nsamples = 6\nvalue = [2, 1, 3]\nclass = Trousers", fillcolor="#e0cef8"] ;
704 -> 708 ;
709 [label="gender <= 71.5\ngini = 0.444\nsamples = 3\nvalue = [0, 1, 2]\nclass = Trousers", fillcolor="#c09cf2"] ;
708 -> 709 ;
710 [label="gini = 0.0\nsamples = 1\nvalue = [0, 0, 1]\nclass = Trousers", fillcolor="#8139e5"] ;
709 -> 710 ;
711 [label="age <= 1.5\ngini = 0.5\nsamples = 2\nvalue = [0, 1, 1]\nclass = Shirt", fillcolor="#ffffff"] ;
709 -> 711 ;
712 [label="gini = 0.0\nsamples = 1\nvalue = [0, 1, 0]\nclass = Shirt", fillcolor="#39e581"] ;
711 -> 712 ;
713 [label="gini = 0.0\nsamples = 1\nvalue = [0, 0, 1]\nclass = Trousers", fillcolor="#8139e5"] ;
711 -> 713 ;
714 [label="age <= 0.5\ngini = 0.444\nsamples = 3\nvalue = [2, 0, 1]\nclass = Jacket", fillcolor="#f2c09c"] ;
708 -> 714 ;
715 [label="gini = 0.0\nsamples = 1\nvalue = [0, 0, 1]\nclass = Trousers", fillcolor="#8139e5"] ;
714 -> 715 ;
716 [label="gini = 0.0\nsamples = 2\nvalue = [2, 0, 0]\nclass = Jacket", fillcolor="#e58139"] ;
714 -> 716 ;
717 [label="gender <= 71.5\ngini = 0.623\nsamples = 27\nvalue = [13, 5, 9]\nclass = Jacket", fillcolor="#f9e3d3"] ;
427 -> 717 ;
718 [label="gender <= 54.5\ngini = 0.632\nsamples = 22\nvalue = [9, 4, 9]\nclass = Jacket", fillcolor="#ffffff"] ;
717 -> 718 ;
719 [label="gini = 0.0\nsamples = 2\nvalue = [2, 0, 0]\nclass = Jacket", fillcolor="#e58139"] ;
718 -> 719 ;
720 [label="gender <= 58.5\ngini = 0.635\nsamples = 20\nvalue = [7, 4, 9]\nclass = Trousers", fillcolor="#ece1fb"] ;
718 -> 720 ;
721 [label="gender <= 56.0\ngini = 0.444\nsamples = 3\nvalue = [0, 1, 2]\nclass = Trousers", fillcolor="#c09cf2"] ;
720 -> 721 ;
722 [label="gini = 0.0\nsamples = 1\nvalue = [0, 0, 1]\nclass = Trousers", fillcolor="#8139e5"] ;
721 -> 722 ;
723 [label="gender <= 57.5\ngini = 0.5\nsamples = 2\nvalue = [0, 1, 1]\nclass = Shirt", fillcolor="#ffffff"] ;
721 -> 723 ;
724 [label="gini = 0.0\nsamples = 1\nvalue = [0, 1, 0]\nclass = Shirt", fillcolor="#39e581"] ;
723 -> 724 ;
725 [label="gini = 0.0\nsamples = 1\nvalue = [0, 0, 1]\nclass = Trousers", fillcolor="#8139e5"] ;
723 -> 725 ;
726 [label="age <= 0.5\ngini = 0.63\nsamples = 17\nvalue = [7, 3, 7]\nclass = Jacket", fillcolor="#ffffff"] ;
720 -> 726 ;
727 [label="gender <= 61.5\ngini = 0.444\nsamples = 3\nvalue = [0, 1, 2]\nclass = Trousers", fillcolor="#c09cf2"] ;
726 -> 727 ;
728 [label="gini = 0.0\nsamples = 1\nvalue = [0, 0, 1]\nclass = Trousers", fillcolor="#8139e5"] ;
727 -> 728 ;
729 [label="gini = 0.5\nsamples = 2\nvalue = [0, 1, 1]\nclass = Shirt", fillcolor="#ffffff"] ;
727 -> 729 ;
730 [label="age <= 1.5\ngini = 0.602\nsamples = 14\nvalue = [7, 2, 5]\nclass = Jacket", fillcolor="#f9e3d3"] ;
726 -> 730 ;
731 [label="gender <= 65.0\ngini = 0.512\nsamples = 11\nvalue = [7, 1, 3]\nclass = Jacket", fillcolor="#f2c09c"] ;
730 -> 731 ;
732 [label="gender <= 60.5\ngini = 0.449\nsamples = 7\nvalue = [5, 1, 1]\nclass = Jacket", fillcolor="#eeab7b"] ;
731 -> 732 ;
733 [label="gender <= 59.5\ngini = 0.625\nsamples = 4\nvalue = [2, 1, 1]\nclass = Jacket", fillcolor="#f6d5bd"] ;
732 -> 733 ;
734 [label="gini = 0.0\nsamples = 1\nvalue = [1, 0, 0]\nclass = Jacket", fillcolor="#e58139"] ;
733 -> 734 ;
735 [label="gini = 0.667\nsamples = 3\nvalue = [1, 1, 1]\nclass = Jacket", fillcolor="#ffffff"] ;
733 -> 735 ;
736 [label="gini = 0.0\nsamples = 3\nvalue = [3, 0, 0]\nclass = Jacket", fillcolor="#e58139"] ;
732 -> 736 ;
737 [label="gender <= 66.5\ngini = 0.5\nsamples = 4\nvalue = [2, 0, 2]\nclass = Jacket", fillcolor="#ffffff"] ;
731 -> 737 ;
738 [label="gini = 0.0\nsamples = 1\nvalue = [0, 0, 1]\nclass = Trousers", fillcolor="#8139e5"] ;
737 -> 738 ;
739 [label="gender <= 69.0\ngini = 0.444\nsamples = 3\nvalue = [2, 0, 1]\nclass = Jacket", fillcolor="#f2c09c"] ;
737 -> 739 ;
740 [label="gini = 0.5\nsamples = 2\nvalue = [1, 0, 1]\nclass = Jacket", fillcolor="#ffffff"] ;
739 -> 740 ;
741 [label="gini = 0.0\nsamples = 1\nvalue = [1, 0, 0]\nclass = Jacket", fillcolor="#e58139"] ;
739 -> 741 ;
742 [label="gender <= 66.5\ngini = 0.444\nsamples = 3\nvalue = [0, 1, 2]\nclass = Trousers", fillcolor="#c09cf2"] ;
730 -> 742 ;
743 [label="gini = 0.0\nsamples = 1\nvalue = [0, 0, 1]\nclass = Trousers", fillcolor="#8139e5"] ;
742 -> 743 ;
744 [label="gender <= 69.0\ngini = 0.5\nsamples = 2\nvalue = [0, 1, 1]\nclass = Shirt", fillcolor="#ffffff"] ;
742 -> 744 ;
745 [label="gini = 0.0\nsamples = 1\nvalue = [0, 1, 0]\nclass = Shirt", fillcolor="#39e581"] ;
744 -> 745 ;
746 [label="gini = 0.0\nsamples = 1\nvalue = [0, 0, 1]\nclass = Trousers", fillcolor="#8139e5"] ;
744 -> 746 ;
747 [label="age <= 1.5\ngini = 0.32\nsamples = 5\nvalue = [4, 1, 0]\nclass = Jacket", fillcolor="#eca06a"] ;
717 -> 747 ;
748 [label="gender <= 72.5\ngini = 0.375\nsamples = 4\nvalue = [3, 1, 0]\nclass = Jacket", fillcolor="#eeab7b"] ;
747 -> 748 ;
749 [label="gini = 0.0\nsamples = 1\nvalue = [1, 0, 0]\nclass = Jacket", fillcolor="#e58139"] ;
748 -> 749 ;
750 [label="gini = 0.444\nsamples = 3\nvalue = [2, 1, 0]\nclass = Jacket", fillcolor="#f2c09c"] ;
748 -> 750 ;
751 [label="gini = 0.0\nsamples = 1\nvalue = [1, 0, 0]\nclass = Jacket", fillcolor="#e58139"] ;
747 -> 751 ;
752 [label="state <= 3.5\ngini = 0.538\nsamples = 77\nvalue = [31, 42, 4]\nclass = Shirt", fillcolor="#d0f9e1"] ;
0 -> 752 [labeldistance=2.5, labelangle=-45, headlabel="False"] ;
753 [label="gender <= 77.5\ngini = 0.498\nsamples = 32\nvalue = [8, 21, 3]\nclass = Shirt", fillcolor="#94f1bb"] ;
752 -> 753 ;
754 [label="gender <= 76.5\ngini = 0.585\nsamples = 20\nvalue = [6, 11, 3]\nclass = Shirt", fillcolor="#b8f6d2"] ;
753 -> 754 ;
755 [label="age <= 1.5\ngini = 0.48\nsamples = 15\nvalue = [4, 10, 1]\nclass = Shirt", fillcolor="#93f1ba"] ;
754 -> 755 ;
756 [label="state <= 2.5\ngini = 0.463\nsamples = 11\nvalue = [4, 7, 0]\nclass = Shirt", fillcolor="#aaf4c9"] ;
755 -> 756 ;
757 [label="state <= 1.5\ngini = 0.494\nsamples = 9\nvalue = [4, 5, 0]\nclass = Shirt", fillcolor="#d7fae6"] ;
756 -> 757 ;
758 [label="gender <= 75.5\ngini = 0.408\nsamples = 7\nvalue = [2, 5, 0]\nclass = Shirt", fillcolor="#88efb3"] ;
757 -> 758 ;
759 [label="state <= 0.5\ngini = 0.444\nsamples = 6\nvalue = [2, 4, 0]\nclass = Shirt", fillcolor="#9cf2c0"] ;
758 -> 759 ;
760 [label="gini = 0.5\nsamples = 2\nvalue = [1, 1, 0]\nclass = Jacket", fillcolor="#ffffff"] ;
759 -> 760 ;
761 [label="gini = 0.375\nsamples = 4\nvalue = [1, 3, 0]\nclass = Shirt", fillcolor="#7beeab"] ;
759 -> 761 ;
762 [label="gini = 0.0\nsamples = 1\nvalue = [0, 1, 0]\nclass = Shirt", fillcolor="#39e581"] ;
758 -> 762 ;
763 [label="gini = 0.0\nsamples = 2\nvalue = [2, 0, 0]\nclass = Jacket", fillcolor="#e58139"] ;
757 -> 763 ;
764 [label="gini = 0.0\nsamples = 2\nvalue = [0, 2, 0]\nclass = Shirt", fillcolor="#39e581"] ;
756 -> 764 ;
765 [label="gender <= 75.5\ngini = 0.375\nsamples = 4\nvalue = [0, 3, 1]\nclass = Shirt", fillcolor="#7beeab"] ;
755 -> 765 ;
766 [label="gini = 0.0\nsamples = 3\nvalue = [0, 3, 0]\nclass = Shirt", fillcolor="#39e581"] ;
765 -> 766 ;
767 [label="gini = 0.0\nsamples = 1\nvalue = [0, 0, 1]\nclass = Trousers", fillcolor="#8139e5"] ;
765 -> 767 ;
768 [label="state <= 0.5\ngini = 0.64\nsamples = 5\nvalue = [2, 1, 2]\nclass = Jacket", fillcolor="#ffffff"] ;
754 -> 768 ;
769 [label="gini = 0.0\nsamples = 1\nvalue = [0, 1, 0]\nclass = Shirt", fillcolor="#39e581"] ;
768 -> 769 ;
770 [label="state <= 2.5\ngini = 0.5\nsamples = 4\nvalue = [2, 0, 2]\nclass = Jacket", fillcolor="#ffffff"] ;
768 -> 770 ;
771 [label="state <= 1.5\ngini = 0.444\nsamples = 3\nvalue = [1, 0, 2]\nclass = Trousers", fillcolor="#c09cf2"] ;
770 -> 771 ;
772 [label="gini = 0.5\nsamples = 2\nvalue = [1, 0, 1]\nclass = Jacket", fillcolor="#ffffff"] ;
771 -> 772 ;
773 [label="gini = 0.0\nsamples = 1\nvalue = [0, 0, 1]\nclass = Trousers", fillcolor="#8139e5"] ;
771 -> 773 ;
774 [label="gini = 0.0\nsamples = 1\nvalue = [1, 0, 0]\nclass = Jacket", fillcolor="#e58139"] ;
770 -> 774 ;
775 [label="age <= 1.5\ngini = 0.278\nsamples = 12\nvalue = [2, 10, 0]\nclass = Shirt", fillcolor="#61ea9a"] ;
753 -> 775 ;
776 [label="gini = 0.0\nsamples = 7\nvalue = [0, 7, 0]\nclass = Shirt", fillcolor="#39e581"] ;
775 -> 776 ;
777 [label="gender <= 79.5\ngini = 0.48\nsamples = 5\nvalue = [2, 3, 0]\nclass = Shirt", fillcolor="#bdf6d5"] ;
775 -> 777 ;
778 [label="gender <= 78.5\ngini = 0.444\nsamples = 3\nvalue = [2, 1, 0]\nclass = Jacket", fillcolor="#f2c09c"] ;
777 -> 778 ;
779 [label="state <= 2.0\ngini = 0.5\nsamples = 2\nvalue = [1, 1, 0]\nclass = Jacket", fillcolor="#ffffff"] ;
778 -> 779 ;
780 [label="gini = 0.0\nsamples = 1\nvalue = [0, 1, 0]\nclass = Shirt", fillcolor="#39e581"] ;
779 -> 780 ;
781 [label="gini = 0.0\nsamples = 1\nvalue = [1, 0, 0]\nclass = Jacket", fillcolor="#e58139"] ;
779 -> 781 ;
782 [label="gini = 0.0\nsamples = 1\nvalue = [1, 0, 0]\nclass = Jacket", fillcolor="#e58139"] ;
778 -> 782 ;
783 [label="gini = 0.0\nsamples = 2\nvalue = [0, 2, 0]\nclass = Shirt", fillcolor="#39e581"] ;
777 -> 783 ;
784 [label="gender <= 75.5\ngini = 0.52\nsamples = 45\nvalue = [23, 21, 1]\nclass = Jacket", fillcolor="#fdf5ef"] ;
752 -> 784 ;
785 [label="state <= 6.5\ngini = 0.568\nsamples = 9\nvalue = [3, 5, 1]\nclass = Shirt", fillcolor="#bdf6d5"] ;
784 -> 785 ;
786 [label="state <= 5.5\ngini = 0.594\nsamples = 8\nvalue = [3, 4, 1]\nclass = Shirt", fillcolor="#d7fae6"] ;
785 -> 786 ;
787 [label="state <= 4.5\ngini = 0.56\nsamples = 5\nvalue = [1, 3, 1]\nclass = Shirt", fillcolor="#9cf2c0"] ;
786 -> 787 ;
788 [label="age <= 0.5\ngini = 0.444\nsamples = 3\nvalue = [1, 2, 0]\nclass = Shirt", fillcolor="#9cf2c0"] ;
787 -> 788 ;
789 [label="gini = 0.0\nsamples = 1\nvalue = [0, 1, 0]\nclass = Shirt", fillcolor="#39e581"] ;
788 -> 789 ;
790 [label="gini = 0.5\nsamples = 2\nvalue = [1, 1, 0]\nclass = Jacket", fillcolor="#ffffff"] ;
788 -> 790 ;
791 [label="age <= 1.5\ngini = 0.5\nsamples = 2\nvalue = [0, 1, 1]\nclass = Shirt", fillcolor="#ffffff"] ;
787 -> 791 ;
792 [label="gini = 0.0\nsamples = 1\nvalue = [0, 0, 1]\nclass = Trousers", fillcolor="#8139e5"] ;
791 -> 792 ;
793 [label="gini = 0.0\nsamples = 1\nvalue = [0, 1, 0]\nclass = Shirt", fillcolor="#39e581"] ;
791 -> 793 ;
794 [label="age <= 0.5\ngini = 0.444\nsamples = 3\nvalue = [2, 1, 0]\nclass = Jacket", fillcolor="#f2c09c"] ;
786 -> 794 ;
795 [label="gini = 0.0\nsamples = 2\nvalue = [2, 0, 0]\nclass = Jacket", fillcolor="#e58139"] ;
794 -> 795 ;
796 [label="gini = 0.0\nsamples = 1\nvalue = [0, 1, 0]\nclass = Shirt", fillcolor="#39e581"] ;
794 -> 796 ;
797 [label="gini = 0.0\nsamples = 1\nvalue = [0, 1, 0]\nclass = Shirt", fillcolor="#39e581"] ;
785 -> 797 ;
798 [label="age <= 0.5\ngini = 0.494\nsamples = 36\nvalue = [20, 16, 0]\nclass = Jacket", fillcolor="#fae6d7"] ;
784 -> 798 ;
799 [label="gini = 0.0\nsamples = 2\nvalue = [2, 0, 0]\nclass = Jacket", fillcolor="#e58139"] ;
798 -> 799 ;
800 [label="gender <= 76.5\ngini = 0.498\nsamples = 34\nvalue = [18, 16, 0]\nclass = Jacket", fillcolor="#fcf1e9"] ;
798 -> 800 ;
801 [label="state <= 6.5\ngini = 0.408\nsamples = 7\nvalue = [5, 2, 0]\nclass = Jacket", fillcolor="#efb388"] ;
800 -> 801 ;
802 [label="gini = 0.0\nsamples = 4\nvalue = [4, 0, 0]\nclass = Jacket", fillcolor="#e58139"] ;
801 -> 802 ;
803 [label="gini = 0.444\nsamples = 3\nvalue = [1, 2, 0]\nclass = Shirt", fillcolor="#9cf2c0"] ;
801 -> 803 ;
804 [label="gender <= 77.5\ngini = 0.499\nsamples = 27\nvalue = [13, 14, 0]\nclass = Shirt", fillcolor="#f1fdf6"] ;
800 -> 804 ;
805 [label="gini = 0.0\nsamples = 2\nvalue = [0, 2, 0]\nclass = Shirt", fillcolor="#39e581"] ;
804 -> 805 ;
806 [label="state <= 6.5\ngini = 0.499\nsamples = 25\nvalue = [13, 12, 0]\nclass = Jacket", fillcolor="#fdf5f0"] ;
804 -> 806 ;
807 [label="state <= 4.5\ngini = 0.499\nsamples = 23\nvalue = [11, 12, 0]\nclass = Shirt", fillcolor="#effdf5"] ;
806 -> 807 ;
808 [label="gender <= 78.5\ngini = 0.463\nsamples = 11\nvalue = [4, 7, 0]\nclass = Shirt", fillcolor="#aaf4c9"] ;
807 -> 808 ;
809 [label="gini = 0.5\nsamples = 4\nvalue = [2, 2, 0]\nclass = Jacket", fillcolor="#ffffff"] ;
808 -> 809 ;
810 [label="gender <= 79.5\ngini = 0.408\nsamples = 7\nvalue = [2, 5, 0]\nclass = Shirt", fillcolor="#88efb3"] ;
808 -> 810 ;
811 [label="age <= 1.5\ngini = 0.375\nsamples = 4\nvalue = [1, 3, 0]\nclass = Shirt", fillcolor="#7beeab"] ;
810 -> 811 ;
812 [label="gini = 0.5\nsamples = 2\nvalue = [1, 1, 0]\nclass = Jacket", fillcolor="#ffffff"] ;
811 -> 812 ;
813 [label="gini = 0.0\nsamples = 2\nvalue = [0, 2, 0]\nclass = Shirt", fillcolor="#39e581"] ;
811 -> 813 ;
814 [label="age <= 1.5\ngini = 0.444\nsamples = 3\nvalue = [1, 2, 0]\nclass = Shirt", fillcolor="#9cf2c0"] ;
810 -> 814 ;
815 [label="gini = 0.0\nsamples = 1\nvalue = [0, 1, 0]\nclass = Shirt", fillcolor="#39e581"] ;
814 -> 815 ;
816 [label="gini = 0.5\nsamples = 2\nvalue = [1, 1, 0]\nclass = Jacket", fillcolor="#ffffff"] ;
814 -> 816 ;
817 [label="state <= 5.5\ngini = 0.486\nsamples = 12\nvalue = [7, 5, 0]\nclass = Jacket", fillcolor="#f8dbc6"] ;
807 -> 817 ;
818 [label="gender <= 78.5\ngini = 0.444\nsamples = 9\nvalue = [6, 3, 0]\nclass = Jacket", fillcolor="#f2c09c"] ;
817 -> 818 ;
819 [label="gini = 0.444\nsamples = 3\nvalue = [2, 1, 0]\nclass = Jacket", fillcolor="#f2c09c"] ;
818 -> 819 ;
820 [label="gender <= 79.5\ngini = 0.444\nsamples = 6\nvalue = [4, 2, 0]\nclass = Jacket", fillcolor="#f2c09c"] ;
818 -> 820 ;
821 [label="gini = 0.444\nsamples = 3\nvalue = [2, 1, 0]\nclass = Jacket", fillcolor="#f2c09c"] ;
820 -> 821 ;
822 [label="gini = 0.444\nsamples = 3\nvalue = [2, 1, 0]\nclass = Jacket", fillcolor="#f2c09c"] ;
820 -> 822 ;
823 [label="gender <= 78.5\ngini = 0.444\nsamples = 3\nvalue = [1, 2, 0]\nclass = Shirt", fillcolor="#9cf2c0"] ;
817 -> 823 ;
824 [label="gini = 0.0\nsamples = 1\nvalue = [0, 1, 0]\nclass = Shirt", fillcolor="#39e581"] ;
823 -> 824 ;
825 [label="gini = 0.5\nsamples = 2\nvalue = [1, 1, 0]\nclass = Jacket", fillcolor="#ffffff"] ;
823 -> 825 ;
826 [label="gini = 0.0\nsamples = 2\nvalue = [2, 0, 0]\nclass = Jacket", fillcolor="#e58139"] ;
806 -> 826 ;
}